{"learner":{"attributes":{"scikit_learn":"{\"_estimator_type\": \"regressor\"}"},"feature_names":[],"feature_types":[],"gradient_booster":{"model":{"gbtree_model_param":{"num_parallel_tree":"1","num_trees":"100"},"iteration_indptr":[0,1,2,3,4,5,6,7,8,9,10,11,12,13,14,15,16,17,18,19,20,21,22,23,24,25,26,27,28,29,30,31,32,33,34,35,36,37,38,39,40,41,42,43,44,45,46,47,48,49,50,51,52,53,54,55,56,57,58,59,60,61,62,63,64,65,66,67,68,69,70,71,72,73,74,75,76,77,78,79,80,81,82,83,84,85,86,87,88,89,90,91,92,93,94,95,96,97,98,99,100],"tree_info":[0,0,0,0,0,0,0,0,0,0,0,0,0,0,0,0,0,0,0,0,0,0,0,0,0,0,0,0,0,0,0,0,0,0,0,0,0,0,0,0,0,0,0,0,0,0,0,0,0,0,0,0,0,0,0,0,0,0,0,0,0,0,0,0,0,0,0,0,0,0,0,0,0,0,0,0,0,0,0,0,0,0,0,0,0,0,0,0,0,0,0,0,0,0,0,0,0,0,0,0],"trees":[{"base_weights":[5.3669E-9,-1.7743981E-1,2.0732443E-1,-3.496553E-1,-1.0166808E-1,1.1817485E-1,2.7428645E-1,-3.9001155E-1,-8.187013E-2,-1.4651716E-1,-2.9723532E-2,6.2568046E-2,1.6579263E-1,7.197873E-2,9.4402425E-2,-1.26828E-1,-1.0619533E-1,-1.9287321E-1,-1.180912E-1,-7.420408E-2,-1.0458241E-2,4.1272365E-2,9.149288E-2,3.829822E-2,5.278054E-2,-6.240696E-2,-5.1345002E-2,-1.3501501E-1,-3.0304255E-2,8.960117E-3,-7.6364376E-2,-1.829972E-2,2.2440888E-3,1.6500484E-2,4.5901667E-2,2.798876E-2,-1.1507303E-3,-4.0953163E-2,-1.927403E-2,-4.0716426E-3,-2.315138E-2,8.676837E-3,-6.071474E-3,1.6145483E-3,-5.294187E-3,6.5856487E-3,-3.2419178E-3,3.7310245E-3,1.4358031E-2],"categories":[],"categories_nodes":[],"categories_segments":[],"categories_sizes":[],"default_left":[0,0,0,0,0,0,0,0,0,0,0,0,0,0,0,0,0,0,0,0,0,0,0,0,0,0,0,0,0,0,0,0,0,0,0,0,0,0,0,0,0,0,0,0,0,0,0,0,0],"id":0,"left_children":[1,3,5,7,9,11,13,15,-1,17,19,21,23,-1,-1,-1,-1,25,27,29,31,33,35,-1,-1,-1,-1,37,-1,-1,39,41,43,45,47,-1,-1,-1,-1,-1,-1,-1,-1,-1,-1,-1,-1,-1,-1],"loss_changes":[5.304773E1,1.0103571E1,3.9373932E0,6.2768364E-1,1.7412605E0,7.4956656E-1,4.5041084E-1,3.0864716E-2,0E0,4.1602278E-1,1.7832248E-1,7.876438E-2,3.709984E-2,0E0,0E0,0E0,0E0,5.5351257E-3,4.6764135E-2,1.6444713E-2,1.4683008E-2,8.302033E-3,9.982944E-3,0E0,0E0,0E0,0E0,2.0250082E-3,0E0,0E0,2.0939112E-3,8.915674E-3,3.6525691E-3,2.3213804E-3,3.7303418E-3,0E0,0E0,0E0,0E0,0E0,0E0,0E0,0E0,0E0,0E0,0E0,0E0,0E0,0E0],"parents":[2147483647,0,0,1,1,2,2,3,3,4,4,5,5,6,6,7,7,9,9,10,10,11,11,12,12,17,17,18,18,19,19,20,20,21,21,22,22,27,27,30,30,31,31,32,32,33,33,34,34],"right_children":[2,4,6,8,10,12,14,16,-1,18,20,22,24,-1,-1,-1,-1,26,28,30,32,34,36,-1,-1,-1,-1,38,-1,-1,40,42,44,46,48,-1,-1,-1,-1,-1,-1,-1,-1,-1,-1,-1,-1,-1,-1],"split_conditions":[5.1318157E-1,2.6333132E-1,6.9652486E-1,1.6596764E-1,4.044338E-1,6.081486E-1,7.654284E-1,1.05152786E-1,-8.187013E-2,3.3223486E-1,4.445776E-1,5.617136E-1,6.366087E-1,7.197873E-2,9.4402425E-2,-1.26828E-1,-1.0619533E-1,2.9868186E-1,3.7747154E-1,1.5488316E-1,4.8562014E-1,5.1437986E-1,7.9868186E-1,3.829822E-2,5.278054E-2,-6.240696E-2,-5.1345002E-2,5.814859E-1,-3.0304255E-2,8.960117E-3,3.5080886E-1,3.3852607E-1,5.3654885E-1,5.0539243E-1,3.9424804E-1,2.798876E-2,-1.1507303E-3,-4.0953163E-2,-1.927403E-2,-4.0716426E-3,-2.315138E-2,8.676837E-3,-6.071474E-3,1.6145483E-3,-5.294187E-3,6.5856487E-3,-3.2419178E-3,3.7310245E-3,1.4358031E-2],"split_indices":[59,59,59,59,59,59,59,59,0,59,59,59,59,0,0,0,0,59,59,0,59,57,3,0,0,0,0,39,0,0,52,38,54,53,17,0,0,0,0,0,0,0,0,0,0,0,0,0,0],"split_type":[0,0,0,0,0,0,0,0,0,0,0,0,0,0,0,0,0,0,0,0,0,0,0,0,0,0,0,0,0,0,0,0,0,0,0,0,0,0,0,0,0,0,0,0,0,0,0,0,0],"sum_hessian":[1.44E3,7.76E2,6.64E2,2.36E2,5.4E2,2.86E2,3.78E2,1.52E2,8.4E1,3.32E2,2.08E2,1.33E2,1.53E2,2.08E2,1.7E2,7.4E1,7.8E1,1.24E2,2.08E2,6.2E1,1.46E2,7.8E1,5.5E1,3.5E1,1.18E2,6.8E1,5.6E1,1.01E2,1.07E2,1E0,6.1E1,9E1,5.6E1,1.3E1,6.5E1,5.4E1,1E0,9.8E1,3E0,1E0,6E1,3E0,8.7E1,4.9E1,7E0,1.1E1,2E0,4E0,6.1E1],"tree_param":{"num_deleted":"0","num_feature":"60","num_nodes":"49","size_leaf_vector":"1"}},{"base_weights":[-1.6154033E-4,-1.2490094E-1,1.4558683E-1,-2.579089E-1,-7.582612E-2,7.047652E-2,1.8513833E-1,-8.762136E-2,-2.2961749E-1,-1.2764908E-1,-4.180876E-2,3.234457E-2,9.687498E-2,1.5744506E-1,2.171894E-1,-7.25341E-2,-5.7629775E-2,-4.452636E-2,-1.0755554E-1,-6.706932E-2,-7.328072E-3,2.148705E-2,4.150342E-2,7.378839E-2,3.295765E-2,1.3785008E-1,5.0875083E-2,5.96014E-2,7.433277E-2,-1.09471574E-1,-6.153389E-2,-7.517014E-2,-5.434011E-2,-1.1529027E-2,5.9451214E-3,3.200795E-3,2.4149967E-2,4.2463902E-2,-9.781212E-4,5.4807994E-3,2.2355635E-2,8.951962E-3,1.3867293E-1,-3.2986008E-2,-8.399012E-3,-3.1033607E-4,-2.1433417E-2,-2.2665644E-2,-4.5140195E-3,7.616097E-3,-1.6696213E-2,6.724551E-3,-3.8006743E-3,2.6759931E-3,-8.925483E-3,3.570478E-3,-3.7102404E-3,7.4942126E-3,-1.2373343E-3,-2.6535989E-5,1.3000238E-2,4.182148E-2,1.0479829E-2],"categories":[],"categories_nodes":[],"categories_segments":[],"categories_sizes":[],"default_left":[0,0,0,0,0,0,0,0,0,0,0,0,0,0,0,0,0,0,0,0,0,0,0,0,0,0,0,0,0,0,0,0,0,0,0,0,0,0,0,0,0,0,0,0,0,0,0,0,0,0,0,0,0,0,0,0,0,0,0,0,0,0,0],"id":1,"left_children":[1,3,5,7,9,11,13,-1,15,17,19,21,23,25,27,-1,-1,-1,29,31,33,35,37,39,-1,41,-1,-1,-1,43,45,47,49,51,53,55,57,59,-1,-1,-1,-1,61,-1,-1,-1,-1,-1,-1,-1,-1,-1,-1,-1,-1,-1,-1,-1,-1,-1,-1,-1,-1],"loss_changes":[2.6216377E1,5.052187E0,1.9624825E0,1.3493347E-1,9.9774194E-1,2.2939694E-1,3.519106E-1,0E0,7.857323E-3,7.794833E-2,3.0000407E-1,8.654684E-3,3.2660007E-2,3.299427E-2,6.348896E-2,0E0,0E0,0E0,3.6689043E-3,1.6435623E-2,8.265273E-3,2.1626614E-3,2.3311973E-3,7.472038E-4,0E0,4.3941736E-3,0E0,0E0,0E0,1.3179779E-3,4.123293E-3,1.596272E-3,9.8980665E-3,4.617544E-3,4.088317E-3,1.0953867E-3,1.0425784E-3,1.8553287E-3,0E0,0E0,0E0,0E0,2.3442507E-3,0E0,0E0,0E0,0E0,0E0,0E0,0E0,0E0,0E0,0E0,0E0,0E0,0E0,0E0,0E0,0E0,0E0,0E0,0E0,0E0],"parents":[2147483647,0,0,1,1,2,2,3,3,4,4,5,5,6,6,8,8,9,9,10,10,11,11,12,12,13,13,14,14,18,18,19,19,20,20,21,21,22,22,23,23,25,25,29,29,30,30,31,31,32,32,33,33,34,34,35,35,36,36,37,37,42,42],"right_children":[2,4,6,8,10,12,14,-1,16,18,20,22,24,26,28,-1,-1,-1,30,32,34,36,38,40,-1,42,-1,-1,-1,44,46,48,50,52,54,56,58,60,-1,-1,-1,-1,62,-1,-1,-1,-1,-1,-1,-1,-1,-1,-1,-1,-1,-1,-1,-1,-1,-1,-1,-1,-1],"split_conditions":[5.1318157E-1,2.297783E-1,6.69263E-1,1.1923307E-1,3.6309168E-1,5.760935E-1,7.531456E-1,-8.762136E-2,1.8424205E-1,3.0647093E-1,4.445776E-1,5.341522E-1,6.1833435E-1,7.15698E-1,8.112642E-1,-7.25341E-2,-5.7629775E-2,-4.452636E-2,4.122229E-1,3.9874175E-1,4.955063E-1,4.0533254E-1,7.75015E-1,3.5530257E-1,3.295765E-2,3.9334932E-1,5.0875083E-2,5.96014E-2,7.433277E-2,7.654284E-1,4.688436E-1,8.4062314E-1,1.5488316E-1,3.3852607E-1,5.3115636E-1,3.9334932E-1,6.605752E-1,1.5488316E-1,-9.781212E-4,5.4807994E-3,2.2355635E-2,8.951962E-3,8.0437386E-1,-3.2986008E-2,-8.399012E-3,-3.1033607E-4,-2.1433417E-2,-2.2665644E-2,-4.5140195E-3,7.616097E-3,-1.6696213E-2,6.724551E-3,-3.8006743E-3,2.6759931E-3,-8.925483E-3,3.570478E-3,-3.7102404E-3,7.4942126E-3,-1.2373343E-3,-2.6535989E-5,1.3000238E-2,4.182148E-2,1.0479829E-2],"split_indices":[59,59,59,59,59,59,59,0,59,59,59,59,59,59,59,0,0,0,46,59,59,29,3,5,0,28,0,0,0,10,1,18,0,38,58,15,17,0,0,0,0,0,33,0,0,0,0,0,0,0,0,0,0,0,0,0,0,0,0,0,0,0,0],"split_type":[0,0,0,0,0,0,0,0,0,0,0,0,0,0,0,0,0,0,0,0,0,0,0,0,0,0,0,0,0,0,0,0,0,0,0,0,0,0,0,0,0,0,0,0,0,0,0,0,0,0,0,0,0,0,0,0,0,0,0,0,0,0,0],"sum_hessian":[1.44E3,7.76E2,6.64E2,2.08E2,5.68E2,2.3E2,4.34E2,9E1,1.18E2,2.24E2,3.44E2,9.5E1,1.35E2,2.36E2,1.98E2,8.5E1,3.3E1,1.07E2,1.17E2,1.98E2,1.46E2,4.5E1,5E1,5.1E1,8.4E1,9.5E1,1.41E2,1.28E2,7E1,1.11E2,6E0,1.18E2,8E1,1.11E2,3.5E1,6E0,3.9E1,4.9E1,1E0,1E0,5E1,1E0,9.4E1,1.1E2,1E0,1E0,5E0,1.17E2,1E0,1E0,7.9E1,3E0,1.08E2,3.3E1,2E0,4E0,2E0,3.8E1,1E0,1E0,4.8E1,9.3E1,1E0],"tree_param":{"num_deleted":"0","num_feature":"60","num_nodes":"63","size_leaf_vector":"1"}},{"base_weights":[-1.4087826E-4,-9.0757236E-2,9.916853E-2,-1.7818129E-1,-5.4406162E-2,3.905758E-2,1.2715413E-1,-6.498058E-2,-1.6183737E-1,-8.9828484E-2,-3.258346E-2,1.8496698E-2,6.059854E-2,1.1203782E-1,1.6083157E-1,-5.1774595E-2,-1.3169128E-1,-1.0104621E-1,-7.547368E-2,-4.750245E-2,-7.1749757E-3,1.1102949E-2,2.7098803E-2,5.1387545E-2,6.970497E-2,9.7091876E-2,1.2543644E-1,4.53856E-2,5.752389E-2,-3.9932568E-2,-1.01870615E-2,-3.0450823E-2,-7.624215E-3,-7.632415E-2,-7.355449E-3,-5.4457214E-2,-3.9816406E-2,-2.079636E-2,-4.5120935E-3,1.2472881E-2,-2.0453313E-2,4.4074792E-2,2.3926396E-2,7.5707645E-3,5.2885108E-2,2.1377243E-2,1.0094637E-2,9.738557E-2,7.603276E-3,9.135998E-3,3.7746165E-2,-2.3406979E-2,-1.4682901E-2,-2.0333156E-3,-1.6452925E-2,6.4736814E-3,-1.21889645E-2,-1.0577828E-3,-6.7558233E-3,2.1524085E-2,-1.7805685E-3,-4.200737E-4,4.3780077E-3,-1.0190383E-3,-8.184954E-3,-2.2557379E-5,1.5433696E-2,5.8758687E-3,9.734331E-3,1.692569E-2,1.0832852E-2,7.609168E-3,2.9304827E-2],"categories":[],"categories_nodes":[],"categories_segments":[],"categories_sizes":[],"default_left":[0,0,0,0,0,0,0,0,0,0,0,0,0,0,0,0,0,0,0,0,0,0,0,0,0,0,0,0,0,0,0,0,0,0,0,0,0,0,0,0,0,0,0,0,0,0,0,0,0,0,0,0,0,0,0,0,0,0,0,0,0,0,0,0,0,0,0,0,0,0,0,0,0],"id":2,"left_children":[1,3,5,7,9,11,13,-1,15,17,19,21,23,25,27,-1,29,31,33,35,37,39,41,43,45,47,49,-1,-1,-1,-1,-1,-1,51,-1,53,55,57,59,61,63,65,67,-1,69,-1,-1,71,-1,-1,-1,-1,-1,-1,-1,-1,-1,-1,-1,-1,-1,-1,-1,-1,-1,-1,-1,-1,-1,-1,-1,-1,-1],"loss_changes":[1.2976642E1,2.386486E0,1.1524153E0,1.0372114E-1,4.098606E-1,9.631738E-2,2.2073889E-1,0E0,2.8773308E-2,2.5062442E-2,1.2551007E-1,6.9497265E-3,5.393088E-3,5.3304672E-2,1.3193607E-2,0E0,1.8519163E-3,1.253128E-3,2.1589398E-3,9.003729E-3,4.403911E-3,2.9785968E-3,1.7458983E-3,8.9773536E-4,4.5709312E-4,8.8238716E-4,2.334118E-3,0E0,0E0,0E0,0E0,0E0,0E0,4.1490793E-4,0E0,1.5968382E-3,6.0209483E-3,5.157534E-4,1.1821155E-2,1.8149093E-3,2.568058E-4,2.2818325E-3,1.0657422E-3,0E0,1.1047274E-3,0E0,0E0,9.0408325E-4,0E0,0E0,0E0,0E0,0E0,0E0,0E0,0E0,0E0,0E0,0E0,0E0,0E0,0E0,0E0,0E0,0E0,0E0,0E0,0E0,0E0,0E0,0E0,0E0,0E0],"parents":[2147483647,0,0,1,1,2,2,3,3,4,4,5,5,6,6,8,8,9,9,10,10,11,11,12,12,13,13,14,14,16,16,17,17,18,18,19,19,20,20,21,21,22,22,23,23,24,24,25,25,26,26,33,33,35,35,36,36,37,37,38,38,39,39,40,40,41,41,42,42,44,44,47,47],"right_children":[2,4,6,8,10,12,14,-1,16,18,20,22,24,26,28,-1,30,32,34,36,38,40,42,44,46,48,50,-1,-1,-1,-1,-1,-1,52,-1,54,56,58,60,62,64,66,68,-1,70,-1,-1,72,-1,-1,-1,-1,-1,-1,-1,-1,-1,-1,-1,-1,-1,-1,-1,-1,-1,-1,-1,-1,-1,-1,-1,-1,-1],"split_conditions":[4.9790293E-1,2.4295986E-1,6.50689E-1,9.286998E-2,3.5769922E-1,5.727981E-1,7.7860993E-1,-6.498058E-2,1.8424205E-1,3.17855E-1,4.445776E-1,5.326543E-1,6.1833435E-1,7.2438586E-1,8.4062314E-1,-5.1774595E-2,3.0647093E-1,7.288796E-1,5.2067107E-1,3.9424804E-1,2.4295986E-1,5.9706414E-1,5.2097064E-1,4.0683043E-1,6.980228E-1,8.067705E-1,6.6027564E-1,4.53856E-2,5.752389E-2,-3.9932568E-2,-1.01870615E-2,-3.0450823E-2,-7.624215E-3,4.074296E-1,-7.355449E-3,3.1995207E-1,1.5488316E-1,2.4295986E-1,3.4272018E-1,3.9424804E-1,4.7423607E-1,1.5488316E-1,7.267825E-1,7.5707645E-3,7.8669864E-1,2.1377243E-2,1.0094637E-2,3.9334932E-1,7.603276E-3,9.135998E-3,3.7746165E-2,-2.3406979E-2,-1.4682901E-2,-2.0333156E-3,-1.6452925E-2,6.4736814E-3,-1.21889645E-2,-1.0577828E-3,-6.7558233E-3,2.1524085E-2,-1.7805685E-3,-4.200737E-4,4.3780077E-3,-1.0190383E-3,-8.184954E-3,-2.2557379E-5,1.5433696E-2,5.8758687E-3,9.734331E-3,1.692569E-2,1.0832852E-2,7.609168E-3,2.9304827E-2],"split_indices":[59,59,59,59,59,59,59,0,59,59,59,59,59,59,58,0,58,0,40,59,0,53,56,14,53,11,58,0,0,0,0,0,0,47,0,58,0,25,37,1,0,0,6,0,21,0,0,28,0,0,0,0,0,0,0,0,0,0,0,0,0,0,0,0,0,0,0,0,0,0,0,0,0],"split_type":[0,0,0,0,0,0,0,0,0,0,0,0,0,0,0,0,0,0,0,0,0,0,0,0,0,0,0,0,0,0,0,0,0,0,0,0,0,0,0,0,0,0,0,0,0,0,0,0,0,0,0,0,0,0,0,0,0,0,0,0,0,0,0,0,0,0,0,0,0,0,0,0,0],"sum_hessian":[1.44E3,7.53E2,6.87E2,2.2E2,5.33E2,2.19E2,4.68E2,6.2E1,1.58E2,2.02E2,3.31E2,1.13E2,1.06E2,3.26E2,1.42E2,1.13E2,4.5E1,1.1E2,9.2E1,2.08E2,1.23E2,6.2E1,5.1E1,5.6E1,5E1,1.58E2,1.68E2,1.13E2,2.9E1,4.4E1,1E0,1.09E2,1E0,9E1,2E0,1.06E2,1.02E2,1.9E1,1.04E2,6E1,2E0,6E0,4.5E1,4E0,5.2E1,4.7E1,3E0,1.57E2,1E0,1E0,1.67E2,8.3E1,7E0,1E0,1.05E2,1E0,1.01E2,2E0,1.7E1,1E0,1.03E2,8E0,5.2E1,1E0,1E0,1E0,5E0,3.2E1,1.3E1,4.1E1,1.1E1,1E0,1.56E2],"tree_param":{"num_deleted":"0","num_feature":"60","num_nodes":"73","size_leaf_vector":"1"}},{"base_weights":[-8.180849E-5,-6.1564073E-2,7.256226E-2,-1.18687004E-1,-3.2994103E-2,3.9682142E-2,9.446517E-2,-1.3609315E-1,-9.039028E-2,-4.737522E-2,-6.5410635E-3,1.9464854E-2,5.3378362E-2,8.5594065E-2,1.2056715E-1,-4.9817502E-2,-3.7984252E-2,-1.0027345E-1,-2.3687668E-2,-6.327927E-2,-3.79823E-2,-1.4321378E-2,9.805127E-4,1.183746E-2,2.3889642E-2,4.5228984E-2,6.0955223E-2,7.467791E-2,9.2798665E-2,1.23121016E-1,6.0887694E-2,-3.0627484E-2,-1.1145738E-2,-1.0225629E-2,-1.9190507E-2,-4.918479E-2,-3.4727614E-2,1.9440189E-2,-1.5693253E-2,1.9664806E-3,-8.973399E-3,-8.300562E-3,1.3051875E-2,2.447422E-2,-2.2915544E-3,5.237907E-3,4.6084154E-2,2.1008149E-2,5.3637363E-2,7.69971E-2,-1.4147237E-2,1.0549462E-2,2.7977707E-2,3.2801244E-2,4.1595235E-2,2.4082715E-2,-5.407861E-3,-1.1183205E-2,-1.7073186E-2,5.5026324E-3,-1.0545051E-2,-4.4209063E-3,1.8295474E-2,-4.0541836E-3,-1.1694117E-2,-2.408579E-3,1.1518165E-3,-3.3702406E-3,-3.650129E-4,4.103574E-3,-1.7084376E-3,1.5864534E-3,7.682533E-3,1.4089959E-2,7.195398E-3,-2.660653E-3,1.6546795E-2,2.3196142E-2,5.728895E-3,8.322245E-3,-2.097171E-2],"categories":[],"categories_nodes":[],"categories_segments":[],"categories_sizes":[],"default_left":[0,0,0,0,0,0,0,0,0,0,0,0,0,0,0,0,0,0,0,0,0,0,0,0,0,0,0,0,0,0,0,0,0,0,0,0,0,0,0,0,0,0,0,0,0,0,0,0,0,0,0,0,0,0,0,0,0,0,0,0,0,0,0,0,0,0,0,0,0,0,0,0,0,0,0,0,0,0,0,0,0],"id":3,"left_children":[1,3,5,7,9,11,13,15,17,19,21,23,25,27,29,-1,-1,31,-1,33,35,37,39,41,43,45,47,49,51,53,55,-1,-1,-1,-1,57,59,61,63,65,-1,67,69,71,-1,-1,73,-1,75,77,79,-1,-1,-1,-1,-1,-1,-1,-1,-1,-1,-1,-1,-1,-1,-1,-1,-1,-1,-1,-1,-1,-1,-1,-1,-1,-1,-1,-1,-1,-1],"loss_changes":[6.4404373E0,1.2706764E0,4.7228408E-1,1.1575842E-1,1.9827163E-1,7.261649E-2,8.137512E-2,2.413702E-2,3.6063194E-3,4.808879E-2,1.0840285E-2,3.3959113E-3,6.9990456E-3,1.658535E-2,7.439971E-3,0E0,0E0,2.0599961E-3,0E0,3.1411648E-4,6.1309636E-3,4.519891E-3,2.952365E-3,1.1354866E-3,1.4402345E-3,1.0951906E-3,1.4885366E-3,2.663356E-2,1.3902187E-3,4.7473907E-3,1.0626974E-2,0E0,0E0,0E0,0E0,2.1102875E-3,4.456967E-3,6.578115E-3,3.939206E-3,1.7717711E-3,0E0,4.8674294E-5,5.4784166E-4,1.3225786E-3,0E0,0E0,3.7503242E-4,0E0,5.0454736E-3,7.889867E-4,1.1281694E-2,0E0,0E0,0E0,0E0,0E0,0E0,0E0,0E0,0E0,0E0,0E0,0E0,0E0,0E0,0E0,0E0,0E0,0E0,0E0,0E0,0E0,0E0,0E0,0E0,0E0,0E0,0E0,0E0,0E0,0E0],"parents":[2147483647,0,0,1,1,2,2,3,3,4,4,5,5,6,6,7,7,8,8,9,9,10,10,11,11,12,12,13,13,14,14,17,17,19,19,20,20,21,21,22,22,23,23,24,24,25,25,26,26,27,27,28,28,29,29,30,30,35,35,36,36,37,37,38,38,39,39,41,41,42,42,43,43,46,46,48,48,49,49,50,50],"right_children":[2,4,6,8,10,12,14,16,18,20,22,24,26,28,30,-1,-1,32,-1,34,36,38,40,42,44,46,48,50,52,54,56,-1,-1,-1,-1,58,60,62,64,66,-1,68,70,72,-1,-1,74,-1,76,78,80,-1,-1,-1,-1,-1,-1,-1,-1,-1,-1,-1,-1,-1,-1,-1,-1,-1,-1,-1,-1,-1,-1,-1,-1,-1,-1,-1,-1,-1,-1],"split_conditions":[5.1467943E-1,2.7531457E-1,6.851408E-1,1.7195925E-1,4.1431996E-1,5.8987415E-1,7.9868186E-1,5.7519473E-2,2.297783E-1,3.4541643E-1,4.736369E-1,5.341522E-1,6.4919114E-1,7.3666865E-1,8.4062314E-1,-4.9817502E-2,-3.7984252E-2,3.5590175E-1,-2.3687668E-2,2.4985021E-1,3.5590175E-1,3.4272018E-1,6.0844815E-1,3.5769922E-1,7.9868186E-1,3.5769922E-1,6.7165965E-1,7.489515E-1,6.372079E-1,8.32834E-1,7.426603E-1,-3.0627484E-2,-1.1145738E-2,-1.0225629E-2,-1.9190507E-2,2.825045E-1,1.3750748E-1,1.8124625E-1,5.293589E-1,4.7243857E-1,-8.973399E-3,3.9424804E-1,6.605752E-1,3.9304972E-1,-2.2915544E-3,5.237907E-3,7.654284E-1,2.1008149E-2,4.7333732E-1,8.112642E-1,6.168364E-1,1.0549462E-2,2.7977707E-2,3.2801244E-2,4.1595235E-2,2.4082715E-2,-5.407861E-3,-1.1183205E-2,-1.7073186E-2,5.5026324E-3,-1.0545051E-2,-4.4209063E-3,1.8295474E-2,-4.0541836E-3,-1.1694117E-2,-2.408579E-3,1.1518165E-3,-3.3702406E-3,-3.650129E-4,4.103574E-3,-1.7084376E-3,1.5864534E-3,7.682533E-3,1.4089959E-2,7.195398E-3,-2.660653E-3,1.6546795E-2,2.3196142E-2,5.728895E-3,8.322245E-3,-2.097171E-2],"split_indices":[59,59,59,59,59,59,59,59,59,59,59,59,59,59,25,0,0,50,0,57,57,37,52,30,3,22,24,58,51,59,0,0,0,0,0,27,5,0,53,58,0,0,17,12,0,0,37,0,9,39,11,0,0,0,0,0,0,0,0,0,0,0,0,0,0,0,0,0,0,0,0,0,0,0,0,0,0,0,0,0,0],"split_type":[0,0,0,0,0,0,0,0,0,0,0,0,0,0,0,0,0,0,0,0,0,0,0,0,0,0,0,0,0,0,0,0,0,0,0,0,0,0,0,0,0,0,0,0,0,0,0,0,0,0,0,0,0,0,0,0,0,0,0,0,0,0,0,0,0,0,0,0,0,0,0,0,0,0,0,0,0,0,0,0,0],"sum_hessian":[1.44E3,7.8E2,6.6E2,2.59E2,5.21E2,2.65E2,3.95E2,1.58E2,1.01E2,3.37E2,1.84E2,1.08E2,1.57E2,2.98E2,9.7E1,3.4E1,1.24E2,5E1,5.1E1,1.23E2,2.14E2,9E1,9.4E1,4.1E1,6.7E1,7.9E1,7.8E1,1.23E2,1.75E2,9.2E1,5E0,4.8E1,2E0,4E0,1.19E2,4.5E1,1.69E2,3E0,8.7E1,9.2E1,2E0,2E0,3.9E1,6.6E1,1E0,3E0,7.6E1,3.1E1,4.7E1,1.2E2,3E0,2E0,1.73E2,5.3E1,3.9E1,4E0,1E0,2E1,2.5E1,1E0,1.68E2,2E0,1E0,8.1E1,6E0,1.4E1,7.8E1,1E0,1E0,3.8E1,1E0,4E0,6.2E1,7.2E1,4E0,1E0,4.6E1,1.19E2,1E0,2E0,1E0],"tree_param":{"num_deleted":"0","num_feature":"60","num_nodes":"81","size_leaf_vector":"1"}},{"base_weights":[-6.6395565E-5,-4.3386888E-2,5.1118735E-2,-8.1902504E-2,-2.2174586E-2,3.012756E-2,6.837352E-2,-9.800417E-2,-6.448825E-2,-3.2208703E-2,-4.644173E-3,1.5296378E-2,4.048989E-2,6.210233E-2,8.61031E-2,-3.599041E-2,-8.997881E-2,-7.515763E-2,-1.7160727E-2,-4.2891197E-2,-2.6742494E-2,-1.4025731E-2,-1.0656278E-3,1.0931886E-2,2.4640338E-2,3.365488E-2,4.4481795E-2,5.5597812E-2,6.668305E-2,8.038264E-2,3.4404773E-2,-7.2076325E-3,-2.7111197E-2,-7.5802006E-2,-6.34414E-3,-3.664723E-2,-4.8340883E-2,-4.7947053E-2,-2.5474235E-2,-1.48672E-2,4.2071566E-3,7.968473E-4,-1.4967589E-2,3.2266E-2,9.514989E-3,1.4321407E-3,2.585613E-2,3.5912484E-2,2.2220543E-2,5.1035203E-2,3.9876334E-2,5.7336587E-2,4.834211E-3,8.439565E-3,2.0101568E-2,8.249463E-2,4.0585637E-2,-1.849934E-2,-2.488015E-2,-1.1196654E-2,-1.3122708E-4,-2.270794E-2,-1.2581541E-2,-1.567313E-2,-5.7223653E-3,4.677236E-3,-7.7255885E-3,-3.897485E-3,-8.744736E-3,-1.9795706E-3,1.2134598E-3,-1.017897E-2,-2.3945037E-3,-2.571434E-4,1.2228321E-2,9.925985E-4,3.734473E-3,9.6743705E-4,-3.2297373E-4,8.161483E-3,2.3781538E-3,2.1851333E-3,1.0890173E-2,1.4356435E-3,6.9580767E-3,1.2401018E-2,2.0623345E-2,-2.2615583E-3,1.2208961E-2,2.817884E-3,1.7303323E-2,-1.7825954E-2,1.0725806E-2,1.5184319E-2,2.5509628E-2,1.6449502E-2,-4.5966804E-3],"categories":[],"categories_nodes":[],"categories_segments":[],"categories_sizes":[],"default_left":[0,0,0,0,0,0,0,0,0,0,0,0,0,0,0,0,0,0,0,0,0,0,0,0,0,0,0,0,0,0,0,0,0,0,0,0,0,0,0,0,0,0,0,0,0,0,0,0,0,0,0,0,0,0,0,0,0,0,0,0,0,0,0,0,0,0,0,0,0,0,0,0,0,0,0,0,0,0,0,0,0,0,0,0,0,0,0,0,0,0,0,0,0,0,0,0,0],"id":4,"left_children":[1,3,5,7,9,11,13,15,17,19,21,23,25,27,29,-1,31,33,-1,35,37,39,41,43,45,47,49,51,53,55,-1,-1,-1,57,-1,59,61,63,65,67,-1,69,71,73,75,77,79,81,83,85,87,89,91,-1,-1,93,95,-1,-1,-1,-1,-1,-1,-1,-1,-1,-1,-1,-1,-1,-1,-1,-1,-1,-1,-1,-1,-1,-1,-1,-1,-1,-1,-1,-1,-1,-1,-1,-1,-1,-1,-1,-1,-1,-1,-1,-1],"loss_changes":[3.1974409E0,6.3626456E-1,2.3735309E-1,7.1350336E-2,8.868104E-2,4.548633E-2,3.4901977E-2,1.4235377E-2,6.272793E-3,1.759708E-2,6.1959354E-3,4.8283394E-3,3.3050478E-3,4.367113E-3,5.822301E-3,0E0,6.198883E-4,2.0676851E-4,0E0,1.8693954E-3,4.560545E-3,1.4122399E-3,3.5073543E-3,2.3228452E-3,1.0634046E-3,9.831861E-4,1.2245029E-3,1.0138273E-2,2.7775764E-5,3.376007E-3,0E0,0E0,0E0,2.8073788E-5,0E0,1.3034195E-3,6.2820464E-3,3.6810152E-4,2.7394742E-3,9.606527E-4,0E0,2.9091437E-3,1.8486865E-3,1.441855E-3,1.4698054E-3,1.6963508E-5,6.791055E-4,3.5778433E-4,1.2651877E-4,4.2001903E-3,2.9512942E-3,1.3228357E-3,1.2057604E-2,0E0,0E0,1.7632842E-3,5.618942E-3,0E0,0E0,0E0,0E0,0E0,0E0,0E0,0E0,0E0,0E0,0E0,0E0,0E0,0E0,0E0,0E0,0E0,0E0,0E0,0E0,0E0,0E0,0E0,0E0,0E0,0E0,0E0,0E0,0E0,0E0,0E0,0E0,0E0,0E0,0E0,0E0,0E0,0E0,0E0,0E0],"parents":[2147483647,0,0,1,1,2,2,3,3,4,4,5,5,6,6,7,7,8,8,9,9,10,10,11,11,12,12,13,13,14,14,16,16,17,17,19,19,20,20,21,21,22,22,23,23,24,24,25,25,26,26,27,27,28,28,29,29,33,33,35,35,36,36,37,37,38,38,39,39,41,41,42,42,43,43,44,44,45,45,46,46,47,47,48,48,49,49,50,50,51,51,52,52,55,55,56,56],"right_children":[2,4,6,8,10,12,14,16,18,20,22,24,26,28,30,-1,32,34,-1,36,38,40,42,44,46,48,50,52,54,56,-1,-1,-1,58,-1,60,62,64,66,68,-1,70,72,74,76,78,80,82,84,86,88,90,92,-1,-1,94,96,-1,-1,-1,-1,-1,-1,-1,-1,-1,-1,-1,-1,-1,-1,-1,-1,-1,-1,-1,-1,-1,-1,-1,-1,-1,-1,-1,-1,-1,-1,-1,-1,-1,-1,-1,-1,-1,-1,-1,-1],"split_conditions":[5.1467943E-1,2.825045E-1,7.0491314E-1,1.479928E-1,4.1431996E-1,6.0425407E-1,8.0347514E-1,5.7519473E-2,2.0880766E-1,3.4541643E-1,4.598562E-1,5.727981E-1,6.50689E-1,7.4146193E-1,8.6099464E-1,-3.599041E-2,1.7675254E-2,5.1437986E-1,-1.7160727E-2,2.9059318E-1,3.2025164E-1,8.454164E-1,7.735171E-1,4.7573397E-1,5.176753E-1,6.851408E-1,6.656681E-1,7.6273215E-1,6.372079E-1,8.529059E-1,3.4404773E-2,-7.2076325E-3,-2.7111197E-2,1.4260036E-1,-6.34414E-3,3.9784303E-1,2.8460157E-1,3.5889754E-1,1.3750748E-1,5.7489514E-1,4.2071566E-3,3.675854E-1,8.148592E-1,1.5488316E-1,5.3115636E-1,4.137208E-1,7.93589E-1,3.5769922E-1,3.918514E-1,4.9191132E-1,4.7333732E-1,3.6518875E-1,6.6596764E-1,8.439565E-3,2.0101568E-2,7.75015E-1,6.698622E-1,-1.849934E-2,-2.488015E-2,-1.1196654E-2,-1.3122708E-4,-2.270794E-2,-1.2581541E-2,-1.567313E-2,-5.7223653E-3,4.677236E-3,-7.7255885E-3,-3.897485E-3,-8.744736E-3,-1.9795706E-3,1.2134598E-3,-1.017897E-2,-2.3945037E-3,-2.571434E-4,1.2228321E-2,9.925985E-4,3.734473E-3,9.6743705E-4,-3.2297373E-4,8.161483E-3,2.3781538E-3,2.1851333E-3,1.0890173E-2,1.4356435E-3,6.9580767E-3,1.2401018E-2,2.0623345E-2,-2.2615583E-3,1.2208961E-2,2.817884E-3,1.7303323E-2,-1.7825954E-2,1.0725806E-2,1.5184319E-2,2.5509628E-2,1.6449502E-2,-4.5966804E-3],"split_indices":[59,59,59,58,59,59,59,58,59,59,59,59,59,59,58,0,40,15,0,24,57,40,4,55,55,51,24,58,51,49,0,0,0,45,0,2,17,8,5,51,0,1,16,0,57,0,17,15,0,8,9,1,4,0,0,57,0,0,0,0,0,0,0,0,0,0,0,0,0,0,0,0,0,0,0,0,0,0,0,0,0,0,0,0,0,0,0,0,0,0,0,0,0,0,0,0,0],"split_type":[0,0,0,0,0,0,0,0,0,0,0,0,0,0,0,0,0,0,0,0,0,0,0,0,0,0,0,0,0,0,0,0,0,0,0,0,0,0,0,0,0,0,0,0,0,0,0,0,0,0,0,0,0,0,0,0,0,0,0,0,0,0,0,0,0,0,0,0,0,0,0,0,0,0,0,0,0,0,0,0,0,0,0,0,0,0,0,0,0,0,0,0,0,0,0,0,0],"sum_hessian":[1.44E3,7.8E2,6.6E2,2.76E2,5.04E2,2.99E2,3.61E2,1.41E2,1.35E2,3.2E2,1.84E2,1.24E2,1.75E2,2.7E2,9.1E1,3.4E1,1.07E2,5.1E1,8.4E1,1.06E2,2.14E2,5E1,1.34E2,8.6E1,3.8E1,6.8E1,1.07E2,1.17E2,1.53E2,7.9E1,1.2E1,1E0,1.06E2,5E1,1E0,5.3E1,5.3E1,1E1,2.04E2,4.9E1,1E0,1.19E2,1.5E1,4E0,8.2E1,2E0,3.6E1,5.5E1,1.3E1,4E1,6.7E1,1.13E2,4E0,2E0,1.51E2,7.4E1,5E0,2E1,3E1,5.2E1,1E0,8E0,4.5E1,8E0,2E0,1E0,2.03E2,4.5E1,4E0,3.6E1,8.3E1,3E0,1.2E1,1E0,3E0,2.7E1,5.5E1,1E0,1E0,3.3E1,3E0,1E0,5.4E1,1E0,1.2E1,2.8E1,1.2E1,1E0,6.6E1,1E0,1.12E2,1E0,3E0,7E0,6.7E1,4E0,1E0],"tree_param":{"num_deleted":"0","num_feature":"60","num_nodes":"97","size_leaf_vector":"1"}},{"base_weights":[-5.28567E-5,-3.0665353E-2,3.6117207E-2,-6.420566E-2,-1.8378112E-2,2.0918977E-2,4.7868203E-2,-8.430873E-2,-5.894867E-2,-3.0060936E-2,-8.299384E-3,1.233923E-2,2.9652428E-2,4.234048E-2,5.9123587E-2,-6.38477E-3,-8.535232E-2,-6.1092004E-2,-4.268699E-2,-3.7540585E-2,-2.4676587E-2,-1.4002677E-2,-8.4475125E-4,7.844257E-3,1.8447671E-2,2.8220432E-2,4.180158E-2,5.490345E-2,4.0784083E-2,5.571124E-2,8.2924336E-2,-1.00367125E-2,-8.720331E-2,-6.1393693E-2,-2.556769E-3,1.3720345E-2,-4.878499E-2,-3.2435544E-2,-4.6598088E-2,-2.5964586E-2,-6.9495514E-3,-1.4499057E-2,5.774057E-3,3.1324804E-3,-6.1788773E-3,2.4980437E-2,6.717448E-3,2.5575012E-3,1.9212298E-2,3.5231054E-2,2.4865592E-2,1.3079224E-2,3.037745E-3,6.148371E-2,9.97048E-3,3.3960123E-2,4.4430856E-2,5.7353072E-2,4.0590864E-2,6.9855363E-3,2.5786152E-2,-2.6475362E-2,-7.2646816E-3,-3.5349035E-3,-1.8496374E-2,-1.5118183E-3,-1.5188443E-2,-9.997586E-3,-2.6268573E-3,-2.0103098E-3,-1.4605938E-2,-4.8951115E-3,-8.318616E-3,-3.4840426E-3,1.5844994E-3,-3.7423098E-3,-6.0178633E-3,-4.1143896E-4,3.2984677E-3,8.513247E-3,5.232941E-4,-5.248451E-3,-8.539697E-4,1.0339558E-3,1.1456264E-2,1.4672624E-3,4.218164E-3,1.2060166E-3,-2.745241E-4,3.0201357E-3,6.1348327E-3,1.0977876E-2,1.8711151E-3,5.1005613E-3,7.889221E-3,1.0925827E-2,2.2236858E-2,1.0768019E-2,-4.1036145E-3,8.96779E-3,1.37239E-2,1.7361747E-2,6.6400296E-3,1.3715076E-2,-3.907174E-3],"categories":[],"categories_nodes":[],"categories_segments":[],"categories_sizes":[],"default_left":[0,0,0,0,0,0,0,0,0,0,0,0,0,0,0,0,0,0,0,0,0,0,0,0,0,0,0,0,0,0,0,0,0,0,0,0,0,0,0,0,0,0,0,0,0,0,0,0,0,0,0,0,0,0,0,0,0,0,0,0,0,0,0,0,0,0,0,0,0,0,0,0,0,0,0,0,0,0,0,0,0,0,0,0,0,0,0,0,0,0,0,0,0,0,0,0,0,0,0,0,0,0,0,0,0],"id":5,"left_children":[1,3,5,7,9,11,13,15,17,19,21,23,25,27,29,-1,31,33,35,37,39,41,43,45,47,49,51,53,55,57,59,-1,61,63,-1,-1,65,67,69,71,73,75,77,79,81,83,85,87,89,91,93,-1,-1,95,-1,97,99,101,103,-1,-1,-1,-1,-1,-1,-1,-1,-1,-1,-1,-1,-1,-1,-1,-1,-1,-1,-1,-1,-1,-1,-1,-1,-1,-1,-1,-1,-1,-1,-1,-1,-1,-1,-1,-1,-1,-1,-1,-1,-1,-1,-1,-1,-1,-1],"loss_changes":[1.5966635E0,3.2068408E-1,1.17049456E-1,1.711762E-2,6.722011E-2,2.1364033E-2,2.0641267E-2,8.801818E-4,3.2824874E-3,9.745985E-3,1.3125598E-2,3.918968E-3,1.3081878E-3,2.7077198E-3,5.1261485E-3,0E0,9.249747E-4,1.8081665E-3,1.4632616E-2,3.5286099E-3,3.4042522E-3,1.8016547E-3,2.8833875E-3,1.5120953E-3,7.041674E-4,2.2050142E-3,2.9803626E-4,1.5212074E-3,4.1898787E-3,3.5312772E-4,3.4736097E-4,0E0,3.7109852E-4,1.163125E-3,0E0,0E0,1.5187226E-3,1.246199E-3,2.7565956E-3,2.0323992E-3,7.45884E-4,1.6749352E-3,2.0160699E-4,2.683955E-3,2.1372815E-3,1.2903898E-3,1.0444864E-3,2.3994022E-5,4.6165474E-4,1.3512075E-3,5.8875605E-4,0E0,0E0,3.0027255E-3,0E0,8.227281E-3,1.4247298E-3,4.569888E-4,4.443066E-3,0E0,0E0,0E0,0E0,0E0,0E0,0E0,0E0,0E0,0E0,0E0,0E0,0E0,0E0,0E0,0E0,0E0,0E0,0E0,0E0,0E0,0E0,0E0,0E0,0E0,0E0,0E0,0E0,0E0,0E0,0E0,0E0,0E0,0E0,0E0,0E0,0E0,0E0,0E0,0E0,0E0,0E0,0E0,0E0,0E0,0E0],"parents":[2147483647,0,0,1,1,2,2,3,3,4,4,5,5,6,6,7,7,8,8,9,9,10,10,11,11,12,12,13,13,14,14,16,16,17,17,18,18,19,19,20,20,21,21,22,22,23,23,24,24,25,25,26,26,27,27,28,28,29,29,30,30,32,32,33,33,36,36,37,37,38,38,39,39,40,40,41,41,42,42,43,43,44,44,45,45,46,46,47,47,48,48,49,49,50,50,53,53,55,55,56,56,57,57,58,58],"right_children":[2,4,6,8,10,12,14,16,18,20,22,24,26,28,30,-1,32,34,36,38,40,42,44,46,48,50,52,54,56,58,60,-1,62,64,-1,-1,66,68,70,72,74,76,78,80,82,84,86,88,90,92,94,-1,-1,96,-1,98,100,102,104,-1,-1,-1,-1,-1,-1,-1,-1,-1,-1,-1,-1,-1,-1,-1,-1,-1,-1,-1,-1,-1,-1,-1,-1,-1,-1,-1,-1,-1,-1,-1,-1,-1,-1,-1,-1,-1,-1,-1,-1,-1,-1,-1,-1,-1,-1],"split_conditions":[5.1467943E-1,2.297783E-1,6.980228E-1,6.980228E-2,3.7986818E-1,6.2402636E-1,7.902936E-1,5.7519473E-2,2.0880766E-1,3.0647093E-1,4.598562E-1,5.727981E-1,7.654284E-1,7.0491314E-1,8.6099464E-1,-6.38477E-3,6.980228E-2,3.5410425E-1,1.2582384E-1,2.9059318E-1,4.7124025E-1,8.454164E-1,4.688436E-1,4.7573397E-1,5.3774714E-1,4.8532054E-1,8.148592E-1,7.174955E-1,7.3666865E-1,8.2145E-1,6.330138E-1,-1.00367125E-2,3.9844218E-1,2.546435E-2,-2.556769E-3,1.3720345E-2,7.459556E-2,3.0197722E-1,1.2582384E-1,2.2258838E-1,6.710605E-1,5.0808865E-1,7.902936E-1,4.3109646E-1,4.9610546E-1,3.1845418E-1,6.653685E-1,4.137208E-1,3.9095268E-1,7.735171E-1,5.1138407E-1,1.3079224E-2,3.037745E-3,6.126423E-1,9.97048E-3,8.0437386E-1,5.617136E-1,8.8975435E-1,8.4062314E-1,6.9855363E-3,2.5786152E-2,-2.6475362E-2,-7.2646816E-3,-3.5349035E-3,-1.8496374E-2,-1.5118183E-3,-1.5188443E-2,-9.997586E-3,-2.6268573E-3,-2.0103098E-3,-1.4605938E-2,-4.8951115E-3,-8.318616E-3,-3.4840426E-3,1.5844994E-3,-3.7423098E-3,-6.0178633E-3,-4.1143896E-4,3.2984677E-3,8.513247E-3,5.232941E-4,-5.248451E-3,-8.539697E-4,1.0339558E-3,1.1456264E-2,1.4672624E-3,4.218164E-3,1.2060166E-3,-2.745241E-4,3.0201357E-3,6.1348327E-3,1.0977876E-2,1.8711151E-3,5.1005613E-3,7.889221E-3,1.0925827E-2,2.2236858E-2,1.0768019E-2,-4.1036145E-3,8.96779E-3,1.37239E-2,1.7361747E-2,6.6400296E-3,1.3715076E-2,-3.907174E-3],"split_indices":[59,58,58,57,59,59,59,18,56,59,59,59,12,56,58,0,15,38,48,54,47,36,29,55,56,3,0,8,59,25,6,0,0,55,0,0,38,59,3,13,9,42,4,57,29,0,11,0,22,47,6,0,0,40,0,37,10,50,41,0,0,0,0,0,0,0,0,0,0,0,0,0,0,0,0,0,0,0,0,0,0,0,0,0,0,0,0,0,0,0,0,0,0,0,0,0,0,0,0,0,0,0,0,0,0],"split_type":[0,0,0,0,0,0,0,0,0,0,0,0,0,0,0,0,0,0,0,0,0,0,0,0,0,0,0,0,0,0,0,0,0,0,0,0,0,0,0,0,0,0,0,0,0,0,0,0,0,0,0,0,0,0,0,0,0,0,0,0,0,0,0,0,0,0,0,0,0,0,0,0,0,0,0,0,0,0,0,0,0,0,0,0,0,0,0,0,0,0,0,0,0,0,0,0,0,0,0,0,0,0,0,0,0],"sum_hessian":[1.44E3,7.8E2,6.6E2,2.08E2,5.72E2,2.89E2,3.71E2,4E1,1.68E2,2.64E2,3.08E2,1.47E2,1.42E2,2.52E2,1.19E2,1E0,3.9E1,1.46E2,2.2E1,1.08E2,1.56E2,1.74E2,1.34E2,8.6E1,6.1E1,1.3E2,1.2E1,2.4E1,2.28E2,1.07E2,1.2E1,2E0,3.7E1,1.45E2,1E0,1E0,2.1E1,7.2E1,3.6E1,1.45E2,1.1E1,1.7E2,4E0,7.7E1,5.7E1,4E0,8.2E1,3E0,5.8E1,3.9E1,9.1E1,1.1E1,1E0,1.7E1,7E0,8.3E1,1.45E2,9.4E1,1.3E1,1E0,1.1E1,3.6E1,1E0,1E0,1.44E2,1E0,2E1,6.9E1,3E0,2E0,3.4E1,2.4E1,1.21E2,8E0,3E0,1.27E2,4.3E1,2E0,2E0,3E0,7.4E1,1.2E1,4.5E1,2E0,2E0,6.7E1,1.5E1,2E0,1E0,8E0,5E1,3.7E1,2E0,1.6E1,7.5E1,7E0,1E1,8E1,3E0,1.4E1,1.31E2,9.2E1,2E0,1.2E1,1E0],"tree_param":{"num_deleted":"0","num_feature":"60","num_nodes":"105","size_leaf_vector":"1"}},{"base_weights":[2.0782267E-5,-2.3173861E-2,2.3934104E-2,-4.5417298E-2,-1.425773E-2,9.502252E-3,3.1854026E-2,-5.6379013E-2,-3.9730947E-2,-1.9927327E-2,-5.617299E-3,4.179284E-3,1.555667E-2,2.6103148E-2,3.8521238E-2,-5.154453E-3,-5.790039E-2,-3.6369234E-2,-4.924077E-2,-2.4897857E-2,-1.5108988E-2,-4.547695E-3,-1.8235166E-2,-8.17478E-3,5.119137E-3,1.6288823E-2,4.879614E-3,2.975496E-2,2.2181924E-2,3.6879174E-2,1.8170377E-2,-3.441486E-2,-6.1004862E-2,-3.7859738E-2,2.8418234E-2,-5.148395E-2,-5.8637806E-3,-2.5919547E-2,-3.0120797E-3,-1.434433E-2,-3.6403317E-2,-6.731985E-3,4.0301206E-3,-2.3443269E-2,3.6443116E-3,-1.3150573E-2,-5.6887267E-4,1.0475266E-2,4.3630223E-3,1.5185794E-2,2.8454214E-2,1.704663E-3,2.526641E-3,2.205491E-2,3.27083E-2,2.3533894E-2,-3.77724E-3,3.415273E-2,4.1481473E-2,-1.28860315E-2,-6.469073E-3,-1.871584E-2,-4.6040076E-3,-1.3492151E-2,-1.0017942E-2,1.1259109E-3,1.1662294E-2,-1.176177E-2,-1.7786719E-2,-6.9994545E-3,-1.2101018E-2,-2.1175996E-3,2.4828137E-4,-4.457356E-3,1.3331295E-3,-1.3516397E-2,-4.6852618E-3,3.8000862E-3,-2.2794493E-3,1.12436486E-4,3.0292065E-3,-1.7927573E-3,-9.745021E-3,-3.7366748E-4,-4.5847395E-3,1.072678E-3,-1.3571144E-3,1.4597501E-3,-3.6190466E-3,-2.305627E-4,4.701633E-3,1.15927495E-2,4.3838243E-3,-1.5425684E-4,8.82791E-4,9.031906E-3,3.725678E-3,1.53850475E-2,8.993264E-3,5.729867E-3,9.607961E-3,-1.4536519E-2,3.523472E-3,8.101748E-3,1.0920785E-2,1.25827715E-2,1.5189976E-3],"categories":[],"categories_nodes":[],"categories_segments":[],"categories_sizes":[],"default_left":[0,0,0,0,0,0,0,0,0,0,0,0,0,0,0,0,0,0,0,0,0,0,0,0,0,0,0,0,0,0,0,0,0,0,0,0,0,0,0,0,0,0,0,0,0,0,0,0,0,0,0,0,0,0,0,0,0,0,0,0,0,0,0,0,0,0,0,0,0,0,0,0,0,0,0,0,0,0,0,0,0,0,0,0,0,0,0,0,0,0,0,0,0,0,0,0,0,0,0,0,0,0,0,0,0,0,0],"id":6,"left_children":[1,3,5,7,9,11,13,15,17,19,21,23,25,27,29,-1,31,33,35,37,39,41,43,45,47,49,51,53,55,57,-1,59,61,63,65,67,-1,69,71,73,75,77,79,81,-1,83,85,-1,87,89,91,93,-1,95,97,99,101,103,105,-1,-1,-1,-1,-1,-1,-1,-1,-1,-1,-1,-1,-1,-1,-1,-1,-1,-1,-1,-1,-1,-1,-1,-1,-1,-1,-1,-1,-1,-1,-1,-1,-1,-1,-1,-1,-1,-1,-1,-1,-1,-1,-1,-1,-1,-1,-1,-1],"loss_changes":[7.998211E-1,1.4452666E-1,8.084971E-2,1.0787427E-2,2.5557637E-2,8.088537E-3,1.655531E-2,3.1199455E-3,2.7168095E-3,7.1919262E-3,2.7377615E-3,1.6209444E-3,8.4295124E-4,2.9055476E-3,5.3687096E-3,0E0,2.7125925E-3,1.1505023E-2,1.2584701E-3,3.3654422E-3,2.131924E-3,3.6619985E-3,2.8165756E-3,3.7097314E-4,2.709095E-3,1.0439642E-3,8.686911E-5,2.1439716E-3,4.440788E-3,1.0677874E-3,0E0,1.7108675E-4,2.6373565E-3,1.8664151E-3,6.278071E-4,6.4629316E-4,0E0,4.5437664E-3,1.3014267E-4,1.6000792E-3,1.9548088E-4,2.7007028E-3,8.833258E-4,2.0165932E-3,0E0,1.3324595E-4,9.8128505E-5,0E0,1.0911291E-3,8.112043E-4,5.63493E-4,1.7994358E-5,0E0,2.5742874E-3,2.9771104E-3,3.8321018E-3,5.42357E-3,1.1072755E-3,9.4631314E-4,0E0,0E0,0E0,0E0,0E0,0E0,0E0,0E0,0E0,0E0,0E0,0E0,0E0,0E0,0E0,0E0,0E0,0E0,0E0,0E0,0E0,0E0,0E0,0E0,0E0,0E0,0E0,0E0,0E0,0E0,0E0,0E0,0E0,0E0,0E0,0E0,0E0,0E0,0E0,0E0,0E0,0E0,0E0,0E0,0E0,0E0,0E0,0E0],"parents":[2147483647,0,0,1,1,2,2,3,3,4,4,5,5,6,6,7,7,8,8,9,9,10,10,11,11,12,12,13,13,14,14,16,16,17,17,18,18,19,19,20,20,21,21,22,22,23,23,24,24,25,25,26,26,27,27,28,28,29,29,31,31,32,32,33,33,34,34,35,35,37,37,38,38,39,39,40,40,41,41,42,42,43,43,45,45,46,46,48,48,49,49,50,50,51,51,53,53,54,54,55,55,56,56,57,57,58,58],"right_children":[2,4,6,8,10,12,14,16,18,20,22,24,26,28,30,-1,32,34,36,38,40,42,44,46,48,50,52,54,56,58,-1,60,62,64,66,68,-1,70,72,74,76,78,80,82,-1,84,86,-1,88,90,92,94,-1,96,98,100,102,104,106,-1,-1,-1,-1,-1,-1,-1,-1,-1,-1,-1,-1,-1,-1,-1,-1,-1,-1,-1,-1,-1,-1,-1,-1,-1,-1,-1,-1,-1,-1,-1,-1,-1,-1,-1,-1,-1,-1,-1,-1,-1,-1,-1,-1,-1,-1,-1,-1],"split_conditions":[4.9191132E-1,2.297783E-1,6.569802E-1,9.88616E-2,3.9304972E-1,5.727981E-1,7.489515E-1,3.594967E-2,3.226483E-1,3.3223486E-1,5.1467943E-1,3.8166568E-1,7.9538643E-1,6.7795086E-1,8.6099464E-1,-5.154453E-3,5.7519473E-2,3.4781307E-1,3.9934093E-1,3.92151E-1,8.0347514E-1,4.7603354E-1,7.4146193E-1,3.7537447E-1,3.5769922E-1,7.642301E-1,7.8669864E-1,4.8532054E-1,7.5404435E-1,8.067705E-1,1.8170377E-2,1.7675254E-2,4.0533254E-1,8.17855E-2,2.6333132E-1,1.3151588E-1,-5.8637806E-3,3.9125225E-1,3.5380468E-1,7.654284E-1,8.4062314E-1,3.3852607E-1,4.9340922E-1,4.6375075E-1,3.6443116E-3,1.2582384E-1,5.3145593E-1,1.0475266E-2,7.1060514E-1,5.760935E-1,7.162972E-1,7.2139007E-1,2.526641E-3,4.1731575E-1,5.937687E-1,7.450569E-1,6.420012E-1,6.608748E-1,8.8975435E-1,-1.28860315E-2,-6.469073E-3,-1.871584E-2,-4.6040076E-3,-1.3492151E-2,-1.0017942E-2,1.1259109E-3,1.1662294E-2,-1.176177E-2,-1.7786719E-2,-6.9994545E-3,-1.2101018E-2,-2.1175996E-3,2.4828137E-4,-4.457356E-3,1.3331295E-3,-1.3516397E-2,-4.6852618E-3,3.8000862E-3,-2.2794493E-3,1.12436486E-4,3.0292065E-3,-1.7927573E-3,-9.745021E-3,-3.7366748E-4,-4.5847395E-3,1.072678E-3,-1.3571144E-3,1.4597501E-3,-3.6190466E-3,-2.305627E-4,4.701633E-3,1.15927495E-2,4.3838243E-3,-1.5425684E-4,8.82791E-4,9.031906E-3,3.725678E-3,1.53850475E-2,8.993264E-3,5.729867E-3,9.607961E-3,-1.4536519E-2,3.523472E-3,8.101748E-3,1.0920785E-2,1.25827715E-2,1.5189976E-3],"split_indices":[59,57,59,58,59,59,59,2,0,59,53,32,20,21,58,0,20,27,24,46,11,54,45,31,28,34,0,9,58,59,0,28,18,8,0,53,0,32,1,29,1,38,53,1,0,5,8,0,49,59,1,1,0,12,30,46,11,21,20,0,0,0,0,0,0,0,0,0,0,0,0,0,0,0,0,0,0,0,0,0,0,0,0,0,0,0,0,0,0,0,0,0,0,0,0,0,0,0,0,0,0,0,0,0,0,0,0],"split_type":[0,0,0,0,0,0,0,0,0,0,0,0,0,0,0,0,0,0,0,0,0,0,0,0,0,0,0,0,0,0,0,0,0,0,0,0,0,0,0,0,0,0,0,0,0,0,0,0,0,0,0,0,0,0,0,0,0,0,0,0,0,0,0,0,0,0,0,0,0,0,0,0,0,0,0,0,0,0,0,0,0,0,0,0,0,0,0,0,0,0,0,0,0,0,0,0,0,0,0,0,0,0,0,0,0,0,0],"sum_hessian":[1.44E3,7.31E2,7.09E2,2.08E2,5.23E2,2.52E2,4.57E2,6.8E1,1.4E2,3.15E2,2.08E2,1.35E2,1.17E2,2.48E2,2.09E2,3E0,6.5E1,1.07E2,3.3E1,1.53E2,1.62E2,1.93E2,1.5E1,9E0,1.26E2,1.09E2,8E0,1.25E2,1.23E2,1.97E2,1.2E1,9E0,5.6E1,1.05E2,2E0,3E1,3E0,1.46E2,7E0,1.58E2,4E0,1.54E2,3.9E1,1.3E1,2E0,5E0,4E0,2E0,1.24E2,1.02E2,7E0,5E0,3E0,3.7E1,8.8E1,1.17E2,6E0,1.29E2,6.8E1,4E0,5E0,5.4E1,2E0,3.7E1,6.8E1,1E0,1E0,1.4E1,1.6E1,1.26E2,2E1,3E0,4E0,1.54E2,4E0,2E0,2E0,6E0,1.48E2,2.5E1,1.4E1,5E0,8E0,1E0,4E0,2E0,2E0,1.21E2,3E0,3E0,9.9E1,3E0,4E0,2E0,3E0,1.9E1,1.8E1,9E0,7.9E1,7.9E1,3.8E1,1E0,5E0,3.4E1,9.5E1,6.7E1,1E0],"tree_param":{"num_deleted":"0","num_feature":"60","num_nodes":"107","size_leaf_vector":"1"}},{"base_weights":[6.993981E-7,-1.7668592E-2,1.5812509E-2,-3.2241695E-2,-1.119196E-2,3.9223284E-3,2.1518642E-2,-4.6429396E-2,-2.9697957E-2,-1.7115355E-2,-7.656024E-3,7.9978764E-4,7.645719E-3,1.7530046E-2,2.7209133E-2,-1.8327786E-2,-5.1316608E-2,-2.7069803E-2,-3.5646684E-2,-1.5558533E-2,-2.7865289E-2,-9.1296295E-3,-2.5375087E-3,1.263362E-3,-6.05194E-3,1.7383166E-2,6.838688E-3,1.4851981E-2,2.0093534E-2,2.4683505E-2,3.5443045E-2,-6.0927956E-3,-1.2630199E-3,-5.659334E-2,-8.8989325E-3,-2.8066702E-2,2.4155498E-2,-3.6237128E-2,-8.301102E-4,-2.2038952E-2,-1.2648187E-2,-3.2915413E-2,-5.1218034E-3,-8.529815E-3,-2.2977302E-2,-1.4036302E-3,-7.9911E-3,2.6712535E-4,7.6687136E-3,-4.823605E-4,2.3418734E-2,9.419712E-4,8.647033E-3,1.6950464E-2,9.758585E-3,2.504505E-2,1.751979E-2,2.5056459E-2,3.5012364E-3,3.7598643E-2,-8.705258E-3,-3.441975E-3,-1.7538784E-2,-9.27821E-3,-5.899081E-3,9.570256E-4,9.912949E-3,-1.1017978E-2,-1.7645718E-3,-4.1487096E-3,-9.463526E-3,-8.6414965E-4,-4.559202E-3,-7.530809E-4,-1.1040625E-2,7.823557E-5,-3.9978237E-3,-3.7533825E-3,-2.086018E-3,-9.295789E-3,1.0105998E-3,2.5374903E-3,-9.947191E-4,7.321599E-4,-1.8351323E-3,8.1648136E-4,3.4062723E-3,-3.1761825E-4,1.0055602E-4,8.083373E-3,8.684278E-4,1.3150377E-3,-6.962938E-4,5.6226207E-3,2.276861E-3,4.473424E-3,8.538762E-3,3.6730913E-3,-1.8572408E-3,6.304861E-3,9.913386E-3,3.076147E-3,6.317047E-3,6.9194543E-3,9.997916E-3,-2.8857889E-4,1.5928806E-3,1.2809928E-2,8.511245E-3,1.2911439E-3,-5.2085104E-3],"categories":[],"categories_nodes":[],"categories_segments":[],"categories_sizes":[],"default_left":[0,0,0,0,0,0,0,0,0,0,0,0,0,0,0,0,0,0,0,0,0,0,0,0,0,0,0,0,0,0,0,0,0,0,0,0,0,0,0,0,0,0,0,0,0,0,0,0,0,0,0,0,0,0,0,0,0,0,0,0,0,0,0,0,0,0,0,0,0,0,0,0,0,0,0,0,0,0,0,0,0,0,0,0,0,0,0,0,0,0,0,0,0,0,0,0,0,0,0,0,0,0,0,0,0,0,0,0,0,0,0],"id":7,"left_children":[1,3,5,7,9,11,13,15,17,19,21,23,25,27,29,31,33,35,37,39,41,43,45,47,-1,49,51,53,55,57,59,-1,-1,61,-1,63,65,67,-1,69,71,73,75,77,79,81,-1,83,85,87,89,91,93,95,97,99,101,103,105,107,109,-1,-1,-1,-1,-1,-1,-1,-1,-1,-1,-1,-1,-1,-1,-1,-1,-1,-1,-1,-1,-1,-1,-1,-1,-1,-1,-1,-1,-1,-1,-1,-1,-1,-1,-1,-1,-1,-1,-1,-1,-1,-1,-1,-1,-1,-1,-1,-1,-1,-1],"loss_changes":[4.0287095E-1,6.39151E-2,5.1547125E-2,6.16391E-3,9.775832E-3,2.8772422E-3,1.1189312E-2,3.1796396E-3,1.8491894E-3,2.511941E-3,2.2245497E-3,1.3477472E-3,7.6912344E-4,1.7954558E-3,3.492266E-3,8.2344515E-5,1.177758E-3,7.265538E-3,9.0923905E-4,2.6634485E-3,2.2434182E-3,1.7227028E-3,1.8207721E-3,8.530384E-4,0E0,8.7392516E-4,1.1221645E-3,1.4699139E-3,1.5110336E-3,1.2078807E-3,4.8001073E-3,0E0,0E0,9.317361E-4,0E0,2.4447367E-3,4.5359007E-4,5.4172426E-4,0E0,3.2318607E-3,2.6951507E-3,1.9165874E-3,2.2427643E-4,1.3126545E-3,2.0033438E-3,1.2726072E-3,0E0,1.6383671E-3,2.97287E-4,1.7684929E-6,3.561878E-4,3.021384E-4,7.2246976E-4,2.0872708E-3,1.9386457E-3,9.169802E-4,2.4568848E-3,1.8830746E-3,3.73916E-5,9.068176E-4,4.1255832E-4,0E0,0E0,0E0,0E0,0E0,0E0,0E0,0E0,0E0,0E0,0E0,0E0,0E0,0E0,0E0,0E0,0E0,0E0,0E0,0E0,0E0,0E0,0E0,0E0,0E0,0E0,0E0,0E0,0E0,0E0,0E0,0E0,0E0,0E0,0E0,0E0,0E0,0E0,0E0,0E0,0E0,0E0,0E0,0E0,0E0,0E0,0E0,0E0,0E0,0E0],"parents":[2147483647,0,0,1,1,2,2,3,3,4,4,5,5,6,6,7,7,8,8,9,9,10,10,11,11,12,12,13,13,14,14,15,15,16,16,17,17,18,18,19,19,20,20,21,21,22,22,23,23,25,25,26,26,27,27,28,28,29,29,30,30,33,33,35,35,36,36,37,37,39,39,40,40,41,41,42,42,43,43,44,44,45,45,47,47,48,48,49,49,50,50,51,51,52,52,53,53,54,54,55,55,56,56,57,57,58,58,59,59,60,60],"right_children":[2,4,6,8,10,12,14,16,18,20,22,24,26,28,30,32,34,36,38,40,42,44,46,48,-1,50,52,54,56,58,60,-1,-1,62,-1,64,66,68,-1,70,72,74,76,78,80,82,-1,84,86,88,90,92,94,96,98,100,102,104,106,108,110,-1,-1,-1,-1,-1,-1,-1,-1,-1,-1,-1,-1,-1,-1,-1,-1,-1,-1,-1,-1,-1,-1,-1,-1,-1,-1,-1,-1,-1,-1,-1,-1,-1,-1,-1,-1,-1,-1,-1,-1,-1,-1,-1,-1,-1,-1,-1,-1,-1,-1],"split_conditions":[4.7243857E-1,2.297783E-1,6.2402636E-1,5.032954E-2,3.4541643E-1,5.326543E-1,7.489515E-1,3.594967E-2,3.1845418E-1,3.9904135E-1,4.2360696E-1,6.0844815E-1,5.2097064E-1,7.0491314E-1,8.289395E-1,3.0647093E-1,1.342121E-1,3.4781307E-1,7.576393E-1,2.3487118E-1,6.126423E-1,8.094667E-1,8.32834E-1,5.3175557E-1,-6.05194E-3,4.0683043E-1,5.4973036E-1,7.3846614E-1,6.587777E-1,8.8975435E-1,8.361294E-1,-6.0927956E-3,-1.2630199E-3,1.7675254E-2,-8.8989325E-3,1.7765129E-1,2.6333132E-1,7.576393E-1,-8.301102E-4,2.4295986E-1,2.6333132E-1,3.8076693E-1,7.3996407E-1,3.5769922E-1,8.1905335E-1,4.1102457E-1,-7.9911E-3,5.12882E-1,5.4523665E-1,1.5488316E-1,5.341522E-1,5.344518E-1,5.575195E-1,7.1060514E-1,6.9652486E-1,6.91432E-1,7.2738165E-1,8.148592E-1,6.653685E-1,8.0437386E-1,7.345716E-1,-3.441975E-3,-1.7538784E-2,-9.27821E-3,-5.899081E-3,9.570256E-4,9.912949E-3,-1.1017978E-2,-1.7645718E-3,-4.1487096E-3,-9.463526E-3,-8.6414965E-4,-4.559202E-3,-7.530809E-4,-1.1040625E-2,7.823557E-5,-3.9978237E-3,-3.7533825E-3,-2.086018E-3,-9.295789E-3,1.0105998E-3,2.5374903E-3,-9.947191E-4,7.321599E-4,-1.8351323E-3,8.1648136E-4,3.4062723E-3,-3.1761825E-4,1.0055602E-4,8.083373E-3,8.684278E-4,1.3150377E-3,-6.962938E-4,5.6226207E-3,2.276861E-3,4.473424E-3,8.538762E-3,3.6730913E-3,-1.8572408E-3,6.304861E-3,9.913386E-3,3.076147E-3,6.317047E-3,6.9194543E-3,9.997916E-3,-2.8857889E-4,1.5928806E-3,1.2809928E-2,8.511245E-3,1.2911439E-3,-5.2085104E-3],"split_indices":[59,57,59,59,59,59,59,50,0,31,59,52,56,59,59,0,48,27,0,39,28,10,2,57,0,2,59,5,26,53,25,0,0,53,0,19,0,7,0,46,36,2,1,47,14,56,0,53,50,0,0,50,58,7,58,38,52,48,0,45,0,0,0,0,0,0,0,0,0,0,0,0,0,0,0,0,0,0,0,0,0,0,0,0,0,0,0,0,0,0,0,0,0,0,0,0,0,0,0,0,0,0,0,0,0,0,0,0,0,0,0],"split_type":[0,0,0,0,0,0,0,0,0,0,0,0,0,0,0,0,0,0,0,0,0,0,0,0,0,0,0,0,0,0,0,0,0,0,0,0,0,0,0,0,0,0,0,0,0,0,0,0,0,0,0,0,0,0,0,0,0,0,0,0,0,0,0,0,0,0,0,0,0,0,0,0,0,0,0,0,0,0,0,0,0,0,0,0,0,0,0,0,0,0,0,0,0,0,0,0,0,0,0,0,0,0,0,0,0,0,0,0,0,0,0],"sum_hessian":[1.44E3,6.8E2,7.6E2,2.08E2,4.72E2,2.47E2,5.13E2,2.9E1,1.79E2,1.75E2,2.97E2,1.35E2,1.12E2,3.04E2,2.09E2,5E0,2.4E1,1.28E2,5.1E1,1.55E2,2E1,2.3E2,6.7E1,1.33E2,2E0,7E0,1.05E2,1.52E2,1.52E2,1.63E2,4.6E1,4E0,1E0,1.8E1,6E0,1.26E2,2E0,5E1,1E0,4.6E1,1.09E2,1.6E1,4E0,2.22E2,8E0,6.5E1,2E0,1.16E2,1.7E1,2E0,5E0,2.5E1,8E1,1.06E2,4.6E1,4.9E1,1.03E2,1.6E2,3E0,4.4E1,2E0,1E0,1.7E1,9.2E1,3.4E1,1E0,1E0,4.9E1,1E0,2.6E1,2E1,2.3E1,8.6E1,2E0,1.4E1,3E0,1E0,6.1E1,1.61E2,6E0,2E0,1E1,5.5E1,8.7E1,2.9E1,8E0,9E0,1E0,1E0,4E0,1E0,1.2E1,1.3E1,6E0,7.4E1,9.2E1,1.4E1,4E1,6E0,3.5E1,1.4E1,3.5E1,6.8E1,1.32E2,2.8E1,1E0,2E0,2.6E1,1.8E1,1E0,1E0],"tree_param":{"num_deleted":"0","num_feature":"60","num_nodes":"111","size_leaf_vector":"1"}},{"base_weights":[-1.3451938E-5,-1.071684E-2,1.3101523E-2,-2.0442577E-2,-5.1710233E-3,8.261532E-3,1.7461685E-2,-2.551687E-2,-1.4971387E-2,-7.6034036E-3,-3.4714426E-4,4.972685E-3,1.0751433E-2,1.6210394E-2,2.5953934E-2,-3.374176E-2,-2.322894E-2,-1.1574741E-2,-1.4178519E-2,1.105929E-2,-7.860791E-3,1.2737828E-3,-6.0539097E-3,3.3665076E-3,8.218041E-3,9.835053E-3,1.8689847E-2,1.5137521E-2,2.339838E-2,2.7806591E-2,-7.3994794E-3,-1.405542E-2,-3.711681E-2,-6.8202103E-3,-2.4039842E-2,7.3910193E-3,-1.4641672E-2,1.4904901E-2,-6.484732E-4,-1.1038654E-2,-5.897948E-3,6.345005E-4,6.56755E-3,-1.6787438E-2,1.990223E-4,4.8324047E-3,-5.1458054E-3,8.029729E-3,6.2080664E-3,1.2249892E-2,5.298852E-3,2.3520809E-2,2.3913742E-3,1.806258E-2,1.205225E-2,1.5054508E-2,2.7822714E-2,3.1430144E-2,1.5396308E-2,1.0974705E-3,-4.4272365E-3,-6.212897E-3,-2.5747926E-3,-3.418272E-3,-1.1657448E-2,-5.537713E-3,9.451917E-3,-2.0765248E-3,-7.4805142E-3,-4.148138E-3,-1.0014072E-2,5.0583333E-3,1.3554409E-3,-3.0736828E-3,-9.799527E-3,1.40777975E-5,-2.1810362E-3,4.569607E-3,-9.371761E-5,-8.245075E-4,-6.6384706E-3,-2.3202226E-3,1.5434308E-3,2.6467773E-3,7.024935E-4,-2.0944672E-3,1.1737407E-3,4.087383E-3,1.1089186E-3,2.456833E-3,5.0740894E-3,-3.7655234E-3,1.8528535E-3,7.5127184E-3,7.8926684E-4,-2.8511882E-4,1.0393248E-3,6.3918754E-3,3.96662E-3,-7.897772E-4,4.0665595E-3,5.259685E-3,1.157266E-3,1.7188803E-3,9.255061E-3,1.01309735E-2,3.893198E-3,2.6201606E-3,5.847809E-3],"categories":[],"categories_nodes":[],"categories_segments":[],"categories_sizes":[],"default_left":[0,0,0,0,0,0,0,0,0,0,0,0,0,0,0,0,0,0,0,0,0,0,0,0,0,0,0,0,0,0,0,0,0,0,0,0,0,0,0,0,0,0,0,0,0,0,0,0,0,0,0,0,0,0,0,0,0,0,0,0,0,0,0,0,0,0,0,0,0,0,0,0,0,0,0,0,0,0,0,0,0,0,0,0,0,0,0,0,0,0,0,0,0,0,0,0,0,0,0,0,0,0,0,0,0,0,0,0,0],"id":8,"left_children":[1,3,5,7,9,11,13,15,17,19,21,23,25,27,29,31,33,-1,35,37,39,41,43,45,47,49,51,53,55,57,59,61,63,65,67,-1,69,71,-1,73,75,77,-1,79,81,83,85,-1,87,89,91,93,95,97,99,101,103,105,107,-1,-1,-1,-1,-1,-1,-1,-1,-1,-1,-1,-1,-1,-1,-1,-1,-1,-1,-1,-1,-1,-1,-1,-1,-1,-1,-1,-1,-1,-1,-1,-1,-1,-1,-1,-1,-1,-1,-1,-1,-1,-1,-1,-1,-1,-1,-1,-1,-1,-1],"loss_changes":[2.0242031E-1,4.2720377E-2,1.3530582E-2,7.6135695E-3,5.9462497E-3,2.4769064E-3,3.1922087E-3,2.0012707E-3,2.0925403E-3,1.7057285E-3,1.5895043E-3,6.760375E-4,1.0892395E-3,1.9516349E-3,2.8010402E-3,1.4715791E-3,1.4194399E-3,0E0,2.8416049E-3,2.8642965E-4,2.0120312E-3,1.7523306E-3,2.5537498E-3,1.1728585E-3,1.4741756E-3,1.6768062E-3,1.2822873E-3,2.1557733E-3,9.4703585E-4,1.3148617E-3,2.980734E-4,4.075945E-5,6.77038E-4,3.704116E-3,1.559034E-3,0E0,1.6295332E-3,5.093927E-6,0E0,1.8263161E-3,1.6970783E-3,1.8154777E-3,0E0,9.889021E-4,1.0206674E-3,7.6448976E-4,2.6011743E-4,0E0,7.133825E-4,1.8119859E-3,9.7018713E-4,3.4733163E-4,2.1221858E-5,1.8065237E-3,2.9269233E-3,3.485214E-4,1.3616327E-3,8.5701793E-4,1.2996444E-4,0E0,0E0,0E0,0E0,0E0,0E0,0E0,0E0,0E0,0E0,0E0,0E0,0E0,0E0,0E0,0E0,0E0,0E0,0E0,0E0,0E0,0E0,0E0,0E0,0E0,0E0,0E0,0E0,0E0,0E0,0E0,0E0,0E0,0E0,0E0,0E0,0E0,0E0,0E0,0E0,0E0,0E0,0E0,0E0,0E0,0E0,0E0,0E0,0E0,0E0],"parents":[2147483647,0,0,1,1,2,2,3,3,4,4,5,5,6,6,7,7,8,8,9,9,10,10,11,11,12,12,13,13,14,14,15,15,16,16,18,18,19,19,20,20,21,21,22,22,23,23,24,24,25,25,26,26,27,27,28,28,29,29,30,30,31,31,32,32,33,33,34,34,36,36,37,37,39,39,40,40,41,41,43,43,44,44,45,45,46,46,48,48,49,49,50,50,51,51,52,52,53,53,54,54,55,55,56,56,57,57,58,58],"right_children":[2,4,6,8,10,12,14,16,18,20,22,24,26,28,30,32,34,-1,36,38,40,42,44,46,48,50,52,54,56,58,60,62,64,66,68,-1,70,72,-1,74,76,78,-1,80,82,84,86,-1,88,90,92,94,96,98,100,102,104,106,108,-1,-1,-1,-1,-1,-1,-1,-1,-1,-1,-1,-1,-1,-1,-1,-1,-1,-1,-1,-1,-1,-1,-1,-1,-1,-1,-1,-1,-1,-1,-1,-1,-1,-1,-1,-1,-1,-1,-1,-1,-1,-1,-1,-1,-1,-1,-1,-1,-1,-1],"split_conditions":[5.251648E-1,2.8639904E-1,7.15698E-1,1.5488316E-1,4.3588975E-1,6.2402636E-1,8.32834E-1,5.032954E-2,1.7675254E-2,2.4985021E-1,5.164769E-1,6.69263E-1,7.654284E-1,8.0437386E-1,8.361294E-1,3.594967E-2,3.594967E-2,-1.1574741E-2,2.546435E-2,2.8460157E-1,3.5410425E-1,5.3145593E-1,6.420012E-1,6.279209E-1,7.15698E-1,6.980228E-1,7.489515E-1,7.19293E-1,7.8669864E-1,8.094667E-1,7.345716E-1,8.7777115E-2,1.7675254E-2,9.88616E-2,3.594967E-2,7.3910193E-3,7.0491314E-1,2.8639904E-1,-6.484732E-4,7.351708E-1,3.7866986E-1,4.520671E-1,6.56755E-3,4.922109E-1,4.940084E-1,4.8711804E-1,7.3067707E-1,8.029729E-3,6.50689E-1,5.0868785E-1,5.5901736E-1,7.9868186E-1,7.93589E-1,6.5008986E-1,7.2738165E-1,7.93589E-1,7.642301E-1,8.454164E-1,7.93589E-1,1.0974705E-3,-4.4272365E-3,-6.212897E-3,-2.5747926E-3,-3.418272E-3,-1.1657448E-2,-5.537713E-3,9.451917E-3,-2.0765248E-3,-7.4805142E-3,-4.148138E-3,-1.0014072E-2,5.0583333E-3,1.3554409E-3,-3.0736828E-3,-9.799527E-3,1.40777975E-5,-2.1810362E-3,4.569607E-3,-9.371761E-5,-8.245075E-4,-6.6384706E-3,-2.3202226E-3,1.5434308E-3,2.6467773E-3,7.024935E-4,-2.0944672E-3,1.1737407E-3,4.087383E-3,1.1089186E-3,2.456833E-3,5.0740894E-3,-3.7655234E-3,1.8528535E-3,7.5127184E-3,7.8926684E-4,-2.8511882E-4,1.0393248E-3,6.3918754E-3,3.96662E-3,-7.897772E-4,4.0665595E-3,5.259685E-3,1.157266E-3,1.7188803E-3,9.255061E-3,1.01309735E-2,3.893198E-3,2.6201606E-3,5.847809E-3],"split_indices":[59,58,59,59,58,59,59,59,2,56,34,20,12,16,25,50,6,0,1,0,50,36,10,38,13,12,18,30,27,16,0,7,38,0,20,0,13,1,0,17,51,58,0,57,56,14,3,0,44,8,39,4,4,3,53,58,33,48,39,0,0,0,0,0,0,0,0,0,0,0,0,0,0,0,0,0,0,0,0,0,0,0,0,0,0,0,0,0,0,0,0,0,0,0,0,0,0,0,0,0,0,0,0,0,0,0,0,0,0],"split_type":[0,0,0,0,0,0,0,0,0,0,0,0,0,0,0,0,0,0,0,0,0,0,0,0,0,0,0,0,0,0,0,0,0,0,0,0,0,0,0,0,0,0,0,0,0,0,0,0,0,0,0,0,0,0,0,0,0,0,0,0,0,0,0,0,0,0,0,0,0,0,0,0,0,0,0,0,0,0,0,0,0,0,0,0,0,0,0,0,0,0,0,0,0,0,0,0,0,0,0,0,0,0,0,0,0,0,0,0,0],"sum_hessian":[1.44E3,7.93E2,6.47E2,2.87E2,5.06E2,3.08E2,3.39E2,1.47E2,1.4E2,3.36E2,1.7E2,1.34E2,1.74E2,2.98E2,4.1E1,2.9E1,1.18E2,3E0,1.37E2,4E0,3.32E2,1.33E2,3.7E1,9.1E1,4.3E1,1.58E2,1.6E1,2.62E2,3.6E1,3.9E1,2E0,5E0,2.4E1,6E0,1.12E2,1E0,1.36E2,3E0,1E0,1.25E2,2.07E2,1.3E2,3E0,1.3E1,2.4E1,7.8E1,1.3E1,3E0,4E1,1.02E2,5.6E1,1.2E1,4E0,1.32E2,1.3E2,1.4E1,2.2E1,2.9E1,1E1,1E0,1E0,1E0,4E0,2E0,2.2E1,5E0,1E0,6E0,1.06E2,1.32E2,4E0,2E0,1E0,1.22E2,3E0,3.9E1,1.68E2,7E0,1.23E2,4E0,9E0,9E0,1.5E1,2.9E1,4.9E1,1.1E1,2E0,9E0,3.1E1,5.6E1,4.6E1,2E0,5.4E1,1.1E1,1E0,1E0,3E0,7.7E1,5.5E1,1.2E1,1.18E2,1.1E1,3E0,3E0,1.9E1,2.5E1,4E0,5E0,5E0],"tree_param":{"num_deleted":"0","num_feature":"60","num_nodes":"109","size_leaf_vector":"1"}},{"base_weights":[8.755261E-6,-8.164959E-3,8.696968E-3,-1.700132E-2,-5.07665E-3,3.7177878E-3,1.1308899E-2,-1.6274413E-2,-3.6823057E-2,-8.204422E-3,-2.7320732E-3,-3.838105E-3,3.9785746E-3,1.0329295E-2,1.7178195E-2,-1.7828427E-2,-7.5474577E-3,-1.2569621E-2,-1.7166988E-3,-7.602771E-3,-3.0000597E-2,-2.2872281E-3,-1.15358075E-2,1.5459776E-2,3.6165705E-3,8.348E-3,1.2162106E-2,2.448828E-2,1.37853725E-2,-2.0769287E-2,-1.2399887E-2,1.2682353E-2,-9.445385E-3,1.1788177E-2,-7.9963915E-3,-1.258166E-2,-4.064024E-3,-4.7083427E-3,-3.653658E-4,-2.7009808E-3,-1.8928658E-2,1.8115462E-3,6.3048364E-3,1.9746958E-3,6.2994924E-3,1.19642895E-2,4.4120746E-3,6.020204E-3,1.29909115E-2,9.219689E-3,9.247835E-3,7.5010685E-3,1.7929843E-2,-2.084485E-3,-6.663517E-3,4.96223E-3,-4.118656E-3,6.2823663E-3,-5.7530706E-4,-3.7852598E-3,-7.4213016E-4,-1.959032E-3,7.8531215E-3,-4.066021E-3,-1.9758653E-3,-1.0234317E-3,-6.134643E-3,1.0639748E-2,-3.0091012E-4,1.1065633E-3,-2.1817214E-3,-6.301785E-3,-6.581426E-4,6.8486095E-3,5.020308E-4,4.679864E-3,1.2987657E-3,3.8077657E-3,-4.744119E-3,-9.408956E-4,2.1577363E-3,2.7584254E-3,4.6510104E-4,5.637396E-3,3.2481598E-3,3.2687366E-3,1.005888E-3,2.9265275E-3,-2.5570274E-3,5.95437E-4,5.952083E-3],"categories":[],"categories_nodes":[],"categories_segments":[],"categories_sizes":[],"default_left":[0,0,0,0,0,0,0,0,0,0,0,0,0,0,0,0,0,0,0,0,0,0,0,0,0,0,0,0,0,0,0,0,0,0,0,0,0,0,0,0,0,0,0,0,0,0,0,0,0,0,0,0,0,0,0,0,0,0,0,0,0,0,0,0,0,0,0,0,0,0,0,0,0,0,0,0,0,0,0,0,0,0,0,0,0,0,0,0,0,0,0],"id":9,"left_children":[1,3,5,7,9,11,13,15,17,19,21,-1,23,25,27,29,31,-1,-1,33,35,37,39,41,43,45,47,49,51,53,55,57,59,61,63,-1,-1,65,67,69,71,-1,-1,73,75,77,79,81,83,85,-1,87,89,-1,-1,-1,-1,-1,-1,-1,-1,-1,-1,-1,-1,-1,-1,-1,-1,-1,-1,-1,-1,-1,-1,-1,-1,-1,-1,-1,-1,-1,-1,-1,-1,-1,-1,-1,-1,-1,-1],"loss_changes":[1.0240357E-1,2.0189717E-2,9.048648E-3,2.167169E-3,4.025569E-3,1.0929473E-3,2.4558753E-3,2.401501E-3,7.0738513E-4,2.8667431E-3,1.2150817E-3,0E0,9.374309E-4,1.3328455E-3,1.2497362E-3,2.2648685E-3,1.2716316E-3,0E0,0E0,1.8574139E-3,6.1044795E-4,1.4081536E-3,9.285924E-4,2.3953E-4,1.0139307E-3,2.6942678E-3,9.5515326E-4,1.5544184E-3,1.0635825E-3,1.8591955E-3,2.457831E-3,4.0189823E-4,5.8800704E-4,1.488838E-3,1.6895859E-3,0E0,0E0,2.6657E-3,3.9198017E-3,2.6049837E-4,2.3202226E-4,0E0,0E0,8.7903935E-4,1.544947E-3,2.2236854E-3,1.9953728E-3,3.5468E-4,2.030516E-3,3.229943E-5,0E0,8.0553826E-4,7.830942E-4,0E0,0E0,0E0,0E0,0E0,0E0,0E0,0E0,0E0,0E0,0E0,0E0,0E0,0E0,0E0,0E0,0E0,0E0,0E0,0E0,0E0,0E0,0E0,0E0,0E0,0E0,0E0,0E0,0E0,0E0,0E0,0E0,0E0,0E0,0E0,0E0,0E0,0E0],"parents":[2147483647,0,0,1,1,2,2,3,3,4,4,5,5,6,6,7,7,8,8,9,9,10,10,12,12,13,13,14,14,15,15,16,16,19,19,20,20,21,21,22,22,23,23,24,24,25,25,26,26,27,27,28,28,29,29,30,30,31,31,32,32,33,33,34,34,37,37,38,38,39,39,40,40,43,43,44,44,45,45,46,46,47,47,48,48,49,49,51,51,52,52],"right_children":[2,4,6,8,10,12,14,16,18,20,22,-1,24,26,28,30,32,-1,-1,34,36,38,40,42,44,46,48,50,52,54,56,58,60,62,64,-1,-1,66,68,70,72,-1,-1,74,76,78,80,82,84,86,-1,88,90,-1,-1,-1,-1,-1,-1,-1,-1,-1,-1,-1,-1,-1,-1,-1,-1,-1,-1,-1,-1,-1,-1,-1,-1,-1,-1,-1,-1,-1,-1,-1,-1,-1,-1,-1,-1,-1,-1],"split_conditions":[4.9610546E-1,2.0880766E-1,6.569802E-1,2.130018E-1,3.6039543E-1,3.5260636E-1,8.148592E-1,1.7195925E-1,5.1437986E-1,5.8717793E-1,8.4062314E-1,-3.838105E-3,4.7573397E-1,7.3726785E-1,7.324745E-1,1.6596764E-1,1.0814859E-1,-1.2569621E-2,-1.7166988E-3,1.342121E-1,5.2067107E-1,4.0982625E-1,4.6375075E-1,4.6045536E-1,6.638706E-1,6.69263E-1,6.2881964E-1,5.401438E-1,7.8669864E-1,2.546435E-2,8.17855E-2,3.594967E-2,2.037148E-1,1.3511084E-1,2.297783E-1,-1.258166E-2,-4.064024E-3,4.772319E-1,3.843619E-1,4.397843E-1,8.529059E-1,1.8115462E-3,6.3048364E-3,3.5260636E-1,6.893349E-1,6.9652486E-1,6.91432E-1,6.980228E-1,7.2438586E-1,5.647094E-1,9.247835E-3,8.2145E-1,7.7860993E-1,-2.084485E-3,-6.663517E-3,4.96223E-3,-4.118656E-3,6.2823663E-3,-5.7530706E-4,-3.7852598E-3,-7.4213016E-4,-1.959032E-3,7.8531215E-3,-4.066021E-3,-1.9758653E-3,-1.0234317E-3,-6.134643E-3,1.0639748E-2,-3.0091012E-4,1.1065633E-3,-2.1817214E-3,-6.301785E-3,-6.581426E-4,6.8486095E-3,5.020308E-4,4.679864E-3,1.2987657E-3,3.8077657E-3,-4.744119E-3,-9.408956E-4,2.1577363E-3,2.7584254E-3,4.6510104E-4,5.637396E-3,3.2481598E-3,3.2687366E-3,1.005888E-3,2.9265275E-3,-2.5570274E-3,5.95437E-4,5.952083E-3],"split_indices":[58,56,59,55,57,35,59,55,12,31,5,0,55,52,45,33,53,0,0,48,34,6,50,0,15,36,23,13,14,24,40,0,58,10,39,0,0,20,10,33,11,0,0,34,17,38,34,42,32,0,0,0,42,0,0,0,0,0,0,0,0,0,0,0,0,0,0,0,0,0,0,0,0,0,0,0,0,0,0,0,0,0,0,0,0,0,0,0,0,0,0],"split_type":[0,0,0,0,0,0,0,0,0,0,0,0,0,0,0,0,0,0,0,0,0,0,0,0,0,0,0,0,0,0,0,0,0,0,0,0,0,0,0,0,0,0,0,0,0,0,0,0,0,0,0,0,0,0,0,0,0,0,0,0,0,0,0,0,0,0,0,0,0,0,0,0,0,0,0,0,0,0,0,0,0,0,0,0,0,0,0,0,0,0,0],"sum_hessian":[1.44E3,7.42E2,6.98E2,1.91E2,5.51E2,2.41E2,4.57E2,1.86E2,5E0,2.35E2,3.16E2,3E0,2.38E2,3.94E2,6.3E1,1.57E2,2.9E1,4E0,1E0,2.3E2,5E0,3.02E2,1.4E1,6E0,2.32E2,1.92E2,2.02E2,1.8E1,4.5E1,1E2,5.7E1,2E0,2.7E1,4E0,2.26E2,2E0,3E0,1.33E2,1.69E2,7E0,7E0,3E0,3E0,1.45E2,8.7E1,9.9E1,9.3E1,2.5E1,1.77E2,6E0,1.2E1,1.9E1,2.6E1,1E1,9E1,2E0,5.5E1,1E0,1E0,1.8E1,9E0,2E0,2E0,4.4E1,1.82E2,1.24E2,9E0,2E0,1.67E2,3E0,4E0,6E0,1E0,1E0,1.44E2,1.4E1,7.3E1,9.7E1,2E0,2.5E1,6.8E1,1.4E1,1.1E1,4.6E1,1.31E2,4E0,2E0,1.7E1,2E0,3E0,2.3E1],"tree_param":{"num_deleted":"0","num_feature":"60","num_nodes":"91","size_leaf_vector":"1"}},{"base_weights":[1.15233415E-5,-6.51289E-3,5.564379E-3,-1.2243348E-2,-4.351967E-3,2.0260445E-3,8.053039E-3,-1.8621946E-2,-1.0903866E-2,-7.6559735E-3,-3.2507784E-3,-6.7711603E-3,2.476464E-3,7.150563E-3,1.1653686E-2,-2.2460686E-2,-2.8002688E-3,-9.138916E-3,-1.7498065E-2,-7.1212254E-3,-1.0693654E-2,-9.552181E-3,-3.0843033E-3,-1.0005114E-2,-1.1839186E-3,2.9050529E-3,-6.0889763E-3,2.2165716E-2,6.88268E-3,-8.559346E-3,1.2210338E-2,2.2732783E-3,-2.409616E-2,-4.6786387E-3,5.4369E-3,-9.732277E-3,5.2925637E-3,-2.022136E-2,-2.7807776E-3,-7.78073E-3,6.5962323E-3,-2.1312407E-3,-6.9066645E-3,-1.0933946E-2,-2.468437E-4,-1.667563E-3,1.0460056E-3,1.7374168E-3,6.9123805E-3,-5.9317877E-3,6.844076E-4,1.9138456E-4,9.831034E-3,6.2596323E-3,1.33534E-2,1.0706931E-3,-4.9223993E-3,1.8452113E-2,1.0103168E-2,-1.5337169E-3,-7.698207E-3,2.6286864E-3,8.976385E-5,-7.0500486E-3,-2.6404532E-3,-6.565808E-3,-4.907921E-5,5.103052E-4,-1.6340789E-3,-1.6379555E-3,-3.993595E-3,2.8423592E-3,1.6792715E-4,-1.1245523E-3,1.7360362E-4,-3.8131657E-3,-1.3838095E-5,-5.1348214E-4,-3.5618362E-3,3.040356E-3,3.6790743E-4,4.4478583E-3,1.5180153E-3,1.3673388E-3,-2.1700412E-3,2.4513197E-3,9.520677E-4,7.717228E-3,2.9955097E-3,8.6848735E-4,5.9812027E-3,1.7757978E-3,3.719393E-3],"categories":[],"categories_nodes":[],"categories_segments":[],"categories_sizes":[],"default_left":[0,0,0,0,0,0,0,0,0,0,0,0,0,0,0,0,0,0,0,0,0,0,0,0,0,0,0,0,0,0,0,0,0,0,0,0,0,0,0,0,0,0,0,0,0,0,0,0,0,0,0,0,0,0,0,0,0,0,0,0,0,0,0,0,0,0,0,0,0,0,0,0,0,0,0,0,0,0,0,0,0,0,0,0,0,0,0,0,0,0,0,0,0],"id":10,"left_children":[1,3,5,7,9,11,13,15,17,19,21,23,25,27,29,31,33,35,37,39,-1,-1,41,43,45,47,49,51,53,55,57,-1,59,-1,61,63,-1,65,67,69,71,73,75,77,-1,-1,-1,79,81,-1,83,-1,-1,85,87,-1,-1,89,91,-1,-1,-1,-1,-1,-1,-1,-1,-1,-1,-1,-1,-1,-1,-1,-1,-1,-1,-1,-1,-1,-1,-1,-1,-1,-1,-1,-1,-1,-1,-1,-1,-1,-1],"loss_changes":[5.2242417E-2,8.156698E-3,6.843334E-3,1.343416E-3,1.7324276E-3,1.2966343E-3,1.4016889E-3,1.7591631E-3,1.609128E-3,1.5422446E-3,1.6342483E-3,2.7725683E-4,1.1483729E-3,1.3276488E-3,1.1171596E-3,1.3616346E-3,8.225641E-4,2.110363E-3,1.186234E-3,1.1278838E-3,0E0,0E0,1.3076712E-3,7.62915E-5,1.6240585E-4,1.363646E-3,1.4038016E-3,1.3488282E-3,1.3798717E-3,3.4413266E-4,9.709932E-4,0E0,5.5192877E-4,0E0,8.280222E-5,1.330927E-3,0E0,8.6454395E-4,8.096019E-5,1.3907775E-3,9.894525E-5,1.281907E-3,2.8662942E-3,5.760335E-5,0E0,0E0,0E0,9.703052E-4,8.92472E-4,0E0,3.7032788E-4,0E0,0E0,1.9383775E-3,1.0348847E-3,0E0,0E0,4.2750733E-4,5.79488E-4,0E0,0E0,0E0,0E0,0E0,0E0,0E0,0E0,0E0,0E0,0E0,0E0,0E0,0E0,0E0,0E0,0E0,0E0,0E0,0E0,0E0,0E0,0E0,0E0,0E0,0E0,0E0,0E0,0E0,0E0,0E0,0E0,0E0,0E0],"parents":[2147483647,0,0,1,1,2,2,3,3,4,4,5,5,6,6,7,7,8,8,9,9,10,10,11,11,12,12,13,13,14,14,15,15,16,16,17,17,18,18,19,19,22,22,23,23,24,24,25,25,26,26,27,27,28,28,29,29,30,30,32,32,34,34,35,35,37,37,38,38,39,39,40,40,41,41,42,42,43,43,47,47,48,48,50,50,53,53,54,54,57,57,58,58],"right_children":[2,4,6,8,10,12,14,16,18,20,22,24,26,28,30,32,34,36,38,40,-1,-1,42,44,46,48,50,52,54,56,58,-1,60,-1,62,64,-1,66,68,70,72,74,76,78,-1,-1,-1,80,82,-1,84,-1,-1,86,88,-1,-1,90,92,-1,-1,-1,-1,-1,-1,-1,-1,-1,-1,-1,-1,-1,-1,-1,-1,-1,-1,-1,-1,-1,-1,-1,-1,-1,-1,-1,-1,-1,-1,-1,-1,-1,-1],"split_conditions":[4.6405032E-1,1.881366E-1,6.530857E-1,5.032954E-2,2.9149193E-1,3.73577E-1,8.0347514E-1,1.3511084E-1,1.7195925E-1,3.9065307E-1,1.0814859E-1,4.7423607E-1,6.7795086E-1,3.7207907E-1,7.5404435E-1,6.980228E-2,8.7777115E-2,1.8424205E-1,3.4661475E-1,3.17855E-1,-1.0693654E-2,-9.552181E-3,5.647094E-1,4.661474E-1,5.0539243E-1,6.309167E-1,6.893349E-1,3.565009E-1,8.0437386E-1,5.5901736E-1,7.3996407E-1,2.2732783E-3,7.459556E-2,-4.6786387E-3,3.4331936E-1,3.594967E-2,5.2925637E-3,3.5080886E-1,3.8166568E-1,2.9149193E-1,2.8460157E-1,3.918514E-1,7.3996407E-1,1.2582384E-1,-2.468437E-4,-1.667563E-3,1.0460056E-3,3.6938286E-1,4.7783104E-1,-5.9317877E-3,7.456561E-1,1.9138456E-4,9.831034E-3,7.19293E-1,7.6902336E-1,1.0706931E-3,-4.9223993E-3,5.368484E-1,7.8460157E-1,-1.5337169E-3,-7.698207E-3,2.6286864E-3,8.976385E-5,-7.0500486E-3,-2.6404532E-3,-6.565808E-3,-4.907921E-5,5.103052E-4,-1.6340789E-3,-1.6379555E-3,-3.993595E-3,2.8423592E-3,1.6792715E-4,-1.1245523E-3,1.7360362E-4,-3.8131657E-3,-1.3838095E-5,-5.1348214E-4,-3.5618362E-3,3.040356E-3,3.6790743E-4,4.4478583E-3,1.5180153E-3,1.3673388E-3,-2.1700412E-3,2.4513197E-3,9.520677E-4,7.717228E-3,2.9955097E-3,8.6848735E-4,5.9812027E-3,1.7757978E-3,3.719393E-3],"split_indices":[59,57,52,53,59,43,59,32,50,54,6,55,55,8,57,0,16,54,38,58,0,0,17,51,1,59,55,8,16,0,46,0,3,0,1,8,0,45,12,54,0,11,24,5,0,0,0,28,1,0,2,0,0,16,13,0,0,8,37,0,0,0,0,0,0,0,0,0,0,0,0,0,0,0,0,0,0,0,0,0,0,0,0,0,0,0,0,0,0,0,0,0,0],"split_type":[0,0,0,0,0,0,0,0,0,0,0,0,0,0,0,0,0,0,0,0,0,0,0,0,0,0,0,0,0,0,0,0,0,0,0,0,0,0,0,0,0,0,0,0,0,0,0,0,0,0,0,0,0,0,0,0,0,0,0,0,0,0,0,0,0,0,0,0,0,0,0,0,0,0,0,0,0,0,0,0,0,0,0,0,0,0,0,0,0,0,0,0,0],"sum_hessian":[1.44E3,6.62E2,7.78E2,1.8E2,4.82E2,3.22E2,4.56E2,2.9E1,1.51E2,1.19E2,3.63E2,1.5E1,3.07E2,3.67E2,8.9E1,2.3E1,6E0,1.21E2,3E1,1.18E2,1E0,1E0,3.62E2,9E0,6E0,2.93E2,1.4E1,5E0,3.62E2,2E0,8.7E1,1E0,2.2E1,2E0,4E0,1.19E2,2E0,2.5E1,5E0,1.13E2,5E0,2.91E2,7.1E1,8E0,1E0,3E0,3E0,2.28E2,6.5E1,4E0,1E1,2E0,3E0,3.32E2,3E1,1E0,1E0,2E1,6.7E1,2E0,2E1,2E0,2E0,6E0,1.13E2,2.3E1,2E0,2E0,3E0,8.1E1,3.2E1,3E0,2E0,1.82E2,1.09E2,3.8E1,3.3E1,1E0,7E0,1.2E1,2.16E2,1.1E1,5.4E1,7E0,3E0,2.04E2,1.28E2,5E0,2.5E1,2E0,1.8E1,2.5E1,4.2E1],"tree_param":{"num_deleted":"0","num_feature":"60","num_nodes":"93","size_leaf_vector":"1"}},{"base_weights":[-4.675844E-6,-4.9260673E-3,3.7601641E-3,-8.76863E-3,-3.2905152E-3,2.0043526E-3,6.6104415E-3,-7.656391E-3,-1.6711857E-2,-5.293861E-5,-4.4905734E-3,1.6156893E-4,3.3497252E-3,9.096667E-3,6.4361384E-3,-1.0529631E-2,-5.145028E-3,4.580734E-3,-1.8961862E-2,-5.080587E-4,8.115954E-3,-5.9592645E-3,-7.130111E-4,1.1991706E-3,-4.4079176E-3,7.4378015E-3,3.191384E-3,6.131632E-3,5.1494413E-3,-2.6349823E-3,-1.31149525E-2,2.141204E-2,-5.991916E-3,-2.2195484E-2,-1.0932786E-2,-5.725931E-3,6.6848466E-4,-5.082323E-3,-1.4956876E-2,1.2544741E-2,-1.6296797E-3,1.396956E-2,7.4407406E-4,-1.7138325E-2,-6.897431E-4,4.688963E-5,4.0215454E-3,1.5610856E-2,5.7883533E-3,7.6761615E-4,-3.2236131E-3,-3.4102087E-3,-7.19215E-3,1.9495548E-3,7.6858634E-3,-4.1812058E-3,-1.4027548E-3,-3.3254214E-3,-7.6593934E-3,-3.6772378E-3,-1.3917536E-3,2.0972213E-3,-3.2794809E-3,1.6671676E-3,-4.7101098E-4,-2.0429099E-3,-3.2130934E-4,-2.9821575E-3,-8.405347E-3,7.25479E-3,1.614191E-3,-2.1500255E-3,-1.3604661E-4,6.9541455E-4,1.0834068E-2,1.9453551E-5,2.698299E-3,-6.8003926E-3,-2.4543034E-3,1.7921157E-3,-8.3833846E-4,4.773286E-3,-3.0883047E-4,3.1029626E-3,9.188328E-4,9.276897E-4,8.253286E-3,7.3975645E-4,2.099313E-3],"categories":[],"categories_nodes":[],"categories_segments":[],"categories_sizes":[],"default_left":[0,0,0,0,0,0,0,0,0,0,0,0,0,0,0,0,0,0,0,0,0,0,0,0,0,0,0,0,0,0,0,0,0,0,0,0,0,0,0,0,0,0,0,0,0,0,0,0,0,0,0,0,0,0,0,0,0,0,0,0,0,0,0,0,0,0,0,0,0,0,0,0,0,0,0,0,0,0,0,0,0,0,0,0,0,0,0,0,0],"id":11,"left_children":[1,3,5,7,9,11,13,15,17,19,21,23,25,-1,27,29,31,-1,33,35,-1,37,39,41,43,-1,45,47,-1,49,51,53,55,57,59,61,63,65,67,69,71,73,75,77,79,81,83,85,87,-1,-1,-1,-1,-1,-1,-1,-1,-1,-1,-1,-1,-1,-1,-1,-1,-1,-1,-1,-1,-1,-1,-1,-1,-1,-1,-1,-1,-1,-1,-1,-1,-1,-1,-1,-1,-1,-1,-1,-1],"loss_changes":[2.6717732E-2,3.8990928E-3,4.0754667E-3,1.5153158E-3,1.7092857E-3,1.2564287E-3,1.0902192E-3,1.136424E-3,1.8725912E-3,1.4941293E-3,1.7766827E-3,1.0246668E-3,9.157001E-4,0E0,9.0750586E-4,1.5166178E-3,2.1524776E-3,0E0,3.0256482E-4,7.3437503E-4,0E0,1.746661E-3,1.1263639E-3,1.0124753E-3,1.8815341E-3,0E0,7.6205935E-4,8.9560356E-4,0E0,8.699539E-4,8.0916286E-4,2.1757092E-5,8.5502234E-4,2.3588166E-4,9.831216E-6,1.5327935E-3,1.0811929E-3,1.4616563E-3,1.0318547E-3,3.7013256E-4,5.568382E-4,1.4643535E-3,9.5766864E-4,2.6033004E-4,4.6548404E-4,1.0750219E-3,1.3684158E-3,1.4046484E-3,1.164062E-3,0E0,0E0,0E0,0E0,0E0,0E0,0E0,0E0,0E0,0E0,0E0,0E0,0E0,0E0,0E0,0E0,0E0,0E0,0E0,0E0,0E0,0E0,0E0,0E0,0E0,0E0,0E0,0E0,0E0,0E0,0E0,0E0,0E0,0E0,0E0,0E0,0E0,0E0,0E0,0E0],"parents":[2147483647,0,0,1,1,2,2,3,3,4,4,5,5,6,6,7,7,8,8,9,9,10,10,11,11,12,12,14,14,15,15,16,16,18,18,19,19,21,21,22,22,23,23,24,24,26,26,27,27,29,29,30,30,31,31,32,32,33,33,34,34,35,35,36,36,37,37,38,38,39,39,40,40,41,41,42,42,43,43,44,44,45,45,46,46,47,47,48,48],"right_children":[2,4,6,8,10,12,14,16,18,20,22,24,26,-1,28,30,32,-1,34,36,-1,38,40,42,44,-1,46,48,-1,50,52,54,56,58,60,62,64,66,68,70,72,74,76,78,80,82,84,86,88,-1,-1,-1,-1,-1,-1,-1,-1,-1,-1,-1,-1,-1,-1,-1,-1,-1,-1,-1,-1,-1,-1,-1,-1,-1,-1,-1,-1,-1,-1,-1,-1,-1,-1,-1,-1,-1,-1,-1,-1],"split_conditions":[4.3588975E-1,2.037148E-1,7.2438586E-1,3.442181E-1,2.8460157E-1,5.449371E-1,6.0724986E-1,1.1204314E-1,6.980228E-2,3.0647093E-1,4.0683043E-1,5.524266E-1,3.5080886E-1,9.096667E-3,8.8975435E-1,5.032954E-2,6.980228E-2,4.580734E-3,3.3433193E-1,2.3487118E-1,8.115954E-3,5.8717793E-1,4.0203714E-1,4.3109646E-1,6.144398E-1,7.4378015E-3,4.8112643E-1,7.0491314E-1,5.1494413E-3,6.980228E-2,2.130018E-1,9.88616E-2,5.032954E-2,2.2258838E-1,3.9934093E-1,1.2582384E-1,3.1995207E-1,3.7866986E-1,3.9874175E-1,3.8765728E-1,4.1731575E-1,4.940084E-1,5.281606E-1,5.290593E-1,6.4829236E-1,5.164769E-1,4.9790293E-1,6.000599E-1,7.3726785E-1,7.6761615E-4,-3.2236131E-3,-3.4102087E-3,-7.19215E-3,1.9495548E-3,7.6858634E-3,-4.1812058E-3,-1.4027548E-3,-3.3254214E-3,-7.6593934E-3,-3.6772378E-3,-1.3917536E-3,2.0972213E-3,-3.2794809E-3,1.6671676E-3,-4.7101098E-4,-2.0429099E-3,-3.2130934E-4,-2.9821575E-3,-8.405347E-3,7.25479E-3,1.614191E-3,-2.1500255E-3,-1.3604661E-4,6.9541455E-4,1.0834068E-2,1.9453551E-5,2.698299E-3,-6.8003926E-3,-2.4543034E-3,1.7921157E-3,-8.3833846E-4,4.773286E-3,-3.0883047E-4,3.1029626E-3,9.188328E-4,9.276897E-4,8.253286E-3,7.3975645E-4,2.099313E-3],"split_indices":[58,32,59,4,2,59,50,12,35,3,49,35,10,0,59,26,6,0,14,54,0,31,48,57,19,0,9,57,0,33,41,0,27,13,0,59,59,46,49,31,48,0,36,55,9,57,2,34,49,0,0,0,0,0,0,0,0,0,0,0,0,0,0,0,0,0,0,0,0,0,0,0,0,0,0,0,0,0,0,0,0,0,0,0,0,0,0,0,0],"split_type":[0,0,0,0,0,0,0,0,0,0,0,0,0,0,0,0,0,0,0,0,0,0,0,0,0,0,0,0,0,0,0,0,0,0,0,0,0,0,0,0,0,0,0,0,0,0,0,0,0,0,0,0,0,0,0,0,0,0,0,0,0,0,0,0,0,0,0,0,0,0,0,0,0,0,0,0,0,0,0,0,0,0,0,0,0,0,0,0,0],"sum_hessian":[1.44E3,6.24E2,8.16E2,1.85E2,4.39E2,5.06E2,3.1E2,1.64E2,2.1E1,1.19E2,3.2E2,2.14E2,2.92E2,1E0,3.09E2,7.5E1,8.9E1,1E0,2E1,1.18E2,1E0,2.3E2,9E1,1.75E2,3.9E1,1E0,2.91E2,3.02E2,7E0,1.9E1,5.6E1,2E0,8.7E1,1.3E1,7E0,2.1E1,9.7E1,2.11E2,1.9E1,5E0,8.5E1,5E0,1.7E2,8E0,3.1E1,6.1E1,2.3E2,9E0,2.93E2,1.2E1,7E0,5E1,6E0,1E0,1E0,1.1E1,7.6E1,4E0,9E0,5E0,2E0,6E0,1.5E1,3E1,6.7E1,1.47E2,6.4E1,1.5E1,4E0,1E0,4E0,1.4E1,7.1E1,4E0,1E0,1.58E2,1.2E1,4E0,4E0,7E0,2.4E1,3E0,5.8E1,2.9E1,2.01E2,5E0,4E0,7.9E1,2.14E2],"tree_param":{"num_deleted":"0","num_feature":"60","num_nodes":"89","size_leaf_vector":"1"}},{"base_weights":[1.6587923E-5,-3.479475E-3,2.6910342E-3,-7.019556E-3,-2.4898208E-3,8.487229E-4,4.1332636E-3,-6.2642004E-3,-6.7024683E-3,-7.080382E-3,-2.077155E-3,-3.705917E-3,1.3043765E-3,9.6389875E-3,3.6830804E-3,-7.2017116E-3,7.244476E-3,-5.121191E-3,-8.8610025E-3,1.8679578E-2,-2.2578465E-3,-5.2818945E-3,9.040393E-3,7.910342E-3,1.0697303E-3,1.4779063E-2,2.9327124E-3,2.9720298E-3,7.2466657E-3,-2.1457996E-5,-8.765515E-3,-2.4579614E-3,1.5498018E-2,1.5324214E-4,-8.567701E-3,6.367083E-3,1.6571224E-3,1.1590897E-4,-3.197357E-3,1.4864156E-3,-6.695013E-3,4.5241E-3,-1.361914E-3,5.9207757E-3,3.51086E-4,2.9568758E-3,2.0008005E-2,-3.4106672E-3,6.1261277E-3,4.4264803E-3,4.094738E-4,1.5605375E-2,6.0702157E-3,-3.167456E-3,8.257484E-4,-2.0975678E-3,-4.444986E-3,3.8873107E-4,-1.6177119E-3,-8.239322E-4,6.2237233E-3,3.2553256E-3,-6.450296E-4,1.7794477E-3,-3.5797043E-3,-2.1675818E-3,3.4630278E-4,-2.3710467E-3,-5.3406466E-4,-7.0185063E-4,1.1952751E-3,2.5130212E-4,-2.215935E-3,-8.790214E-5,2.815119E-3,1.4094583E-4,-5.005382E-3,2.599758E-3,-1.0473982E-3,6.3978615E-3,6.284416E-4,3.0310752E-4,-1.3490833E-3,2.112011E-3,-4.5194328E-4,3.3865572E-4,1.8640286E-3,-6.67699E-3,4.4825135E-4,1.1271537E-4,7.4004084E-3,1.3419391E-3,3.7455203E-3],"categories":[],"categories_nodes":[],"categories_segments":[],"categories_sizes":[],"default_left":[0,0,0,0,0,0,0,0,0,0,0,0,0,0,0,0,0,0,0,0,0,0,0,0,0,0,0,0,0,0,0,0,0,0,0,0,0,0,0,0,0,0,0,0,0,0,0,0,0,0,0,0,0,0,0,0,0,0,0,0,0,0,0,0,0,0,0,0,0,0,0,0,0,0,0,0,0,0,0,0,0,0,0,0,0,0,0,0,0,0,0,0,0],"id":12,"left_children":[1,3,5,7,9,11,13,15,-1,17,19,21,23,25,27,29,31,33,-1,35,37,39,41,-1,43,45,47,49,51,53,55,57,59,61,63,-1,-1,65,67,69,71,-1,-1,73,75,77,79,81,83,85,87,89,91,-1,-1,-1,-1,-1,-1,-1,-1,-1,-1,-1,-1,-1,-1,-1,-1,-1,-1,-1,-1,-1,-1,-1,-1,-1,-1,-1,-1,-1,-1,-1,-1,-1,-1,-1,-1,-1,-1,-1,-1],"loss_changes":[1.3482761E-2,2.1721828E-3,2.16729E-3,1.4340524E-3,9.1353315E-4,7.5195567E-4,1.0996908E-3,1.711227E-3,0E0,1.6085838E-3,1.7336803E-3,7.10651E-4,1.9007742E-3,1.1286626E-3,1.0553664E-3,1.3809181E-3,7.588089E-4,6.9209177E-4,0E0,1.6641687E-5,9.994861E-4,2.9688427E-4,3.9655244E-4,0E0,1.1344147E-3,1.1153724E-3,3.4500688E-4,1.325039E-3,5.936241E-4,7.0131413E-4,9.803739E-4,6.206223E-5,5.356864E-4,4.175834E-4,1.1928235E-3,0E0,0E0,9.841267E-4,2.1267605E-3,6.666022E-5,1.3639685E-4,0E0,0E0,9.0650737E-4,5.8431015E-4,2.8794416E-4,2.6229676E-4,3.3358272E-5,8.733623E-5,1.3306267E-3,3.2294178E-3,1.0949003E-3,5.895917E-4,0E0,0E0,0E0,0E0,0E0,0E0,0E0,0E0,0E0,0E0,0E0,0E0,0E0,0E0,0E0,0E0,0E0,0E0,0E0,0E0,0E0,0E0,0E0,0E0,0E0,0E0,0E0,0E0,0E0,0E0,0E0,0E0,0E0,0E0,0E0,0E0,0E0,0E0,0E0,0E0],"parents":[2147483647,0,0,1,1,2,2,3,3,4,4,5,5,6,6,7,7,9,9,10,10,11,11,12,12,13,13,14,14,15,15,16,16,17,17,19,19,20,20,21,21,22,22,24,24,25,25,26,26,27,27,28,28,29,29,30,30,31,31,32,32,33,33,34,34,37,37,38,38,39,39,40,40,43,43,44,44,45,45,46,46,47,47,48,48,49,49,50,50,51,51,52,52],"right_children":[2,4,6,8,10,12,14,16,-1,18,20,22,24,26,28,30,32,34,-1,36,38,40,42,-1,44,46,48,50,52,54,56,58,60,62,64,-1,-1,66,68,70,72,-1,-1,74,76,78,80,82,84,86,88,90,92,-1,-1,-1,-1,-1,-1,-1,-1,-1,-1,-1,-1,-1,-1,-1,-1,-1,-1,-1,-1,-1,-1,-1,-1,-1,-1,-1,-1,-1,-1,-1,-1,-1,-1,-1,-1,-1,-1,-1,-1],"split_conditions":[4.3588975E-1,1.4529659E-1,6.530857E-1,1.8124625E-1,1.3151588E-1,3.73577E-1,6.6596764E-1,1.7195925E-1,-6.7024683E-3,1.7195925E-1,8.17855E-2,3.825644E-1,3.4272018E-1,6.803475E-1,7.902936E-1,4.493709E-2,1.2582384E-1,9.286998E-2,-8.8610025E-3,8.17855E-2,2.9149193E-1,4.580587E-1,5.3115636E-1,7.910342E-3,4.0533254E-1,6.255243E-1,7.324745E-1,7.19293E-1,6.989215E-1,1.7675254E-2,2.037148E-1,1.2252846E-1,9.88616E-2,5.032954E-2,8.17855E-2,6.367083E-3,1.6571224E-3,1.4260036E-1,3.17855E-1,4.553625E-1,1.3750748E-1,4.5241E-3,-1.361914E-3,3.948472E-1,8.6099464E-1,6.105452E-1,6.893349E-1,6.818454E-1,7.7082086E-1,6.5847814E-1,6.4080286E-1,8.112642E-1,8.1905335E-1,-3.167456E-3,8.257484E-4,-2.0975678E-3,-4.444986E-3,3.8873107E-4,-1.6177119E-3,-8.239322E-4,6.2237233E-3,3.2553256E-3,-6.450296E-4,1.7794477E-3,-3.5797043E-3,-2.1675818E-3,3.4630278E-4,-2.3710467E-3,-5.3406466E-4,-7.0185063E-4,1.1952751E-3,2.5130212E-4,-2.215935E-3,-8.790214E-5,2.815119E-3,1.4094583E-4,-5.005382E-3,2.599758E-3,-1.0473982E-3,6.3978615E-3,6.284416E-4,3.0310752E-4,-1.3490833E-3,2.112011E-3,-4.5194328E-4,3.3865572E-4,1.8640286E-3,-6.67699E-3,4.4825135E-4,1.1271537E-4,7.4004084E-3,1.3419391E-3,3.7455203E-3],"split_indices":[58,26,52,29,47,33,51,30,0,59,36,32,37,18,15,31,28,49,0,1,40,58,5,0,31,48,11,16,9,35,9,29,12,7,58,0,0,34,58,49,0,0,0,36,15,49,52,15,11,30,8,26,36,0,0,0,0,0,0,0,0,0,0,0,0,0,0,0,0,0,0,0,0,0,0,0,0,0,0,0,0,0,0,0,0,0,0,0,0,0,0,0,0],"split_type":[0,0,0,0,0,0,0,0,0,0,0,0,0,0,0,0,0,0,0,0,0,0,0,0,0,0,0,0,0,0,0,0,0,0,0,0,0,0,0,0,0,0,0,0,0,0,0,0,0,0,0,0,0,0,0,0,0,0,0,0,0,0,0,0,0,0,0,0,0,0,0,0,0,0,0,0,0,0,0,0,0,0,0,0,0,0,0,0,0,0,0,0,0],"sum_hessian":[1.44E3,6.24E2,8.16E2,1.35E2,4.89E2,3.59E2,4.57E2,1.3E2,5E0,3.9E1,4.5E2,3.2E1,3.27E2,3.3E1,4.24E2,1.22E2,8E0,3.7E1,2E0,3E0,4.47E2,2.9E1,3E0,2E0,3.25E2,1.8E1,1.5E1,3.55E2,6.9E1,2.2E1,1E2,4E0,4E0,1.5E1,2.2E1,2E0,1E0,1.27E2,3.2E2,5E0,2.4E1,2E0,1E0,4.1E1,2.84E2,6E0,1.2E1,5E0,1E1,2.26E2,1.29E2,7E0,6.2E1,4E0,1.8E1,7.9E1,2.1E1,2E0,2E0,1E0,3E0,2E0,1.3E1,4E0,1.8E1,1.5E1,1.12E2,7.3E1,2.47E2,2E0,3E0,2E0,2.2E1,1.5E1,2.6E1,2.83E2,1E0,3E0,3E0,1.1E1,1E0,1E0,4E0,9E0,1E0,8E1,1.46E2,5E0,1.24E2,3E0,4E0,5.1E1,1.1E1],"tree_param":{"num_deleted":"0","num_feature":"60","num_nodes":"93","size_leaf_vector":"1"}},{"base_weights":[1.7899329E-5,-1.9238078E-3,2.548914E-3,-4.3723243E-3,-1.1058287E-3,2.196561E-3,6.2405677E-3,-4.7201435E-3,1.0414901E-2,1.0385489E-2,-1.2557044E-3,2.9579154E-3,3.743035E-4,7.957426E-3,2.1375142E-4,-4.2703934E-3,-2.5690306E-2,6.846616E-3,1.6076006E-3,-9.841919E-4,1.2806456E-2,-4.3792003E-3,-8.787987E-4,1.491255E-3,6.8643424E-3,-1.3190299E-2,1.3956929E-3,1.3350248E-3,1.0880053E-2,-1.8891811E-3,1.6252935E-3,-1.0755894E-2,-3.598119E-3,-1.141423E-3,-9.515174E-3,-3.723055E-4,1.1320979E-3,9.176597E-4,4.176373E-3,-1.4163858E-3,-9.381658E-3,6.7571807E-3,-1.0350336E-3,2.5048982E-3,-2.6057737E-3,5.7076826E-3,1.7860174E-2,-2.4714405E-3,-1.0203048E-2,-6.674707E-3,2.2209366E-3,2.84038E-3,-1.5394212E-3,1.263734E-2,3.5518152E-3,1.0656118E-3,-3.3077511E-3,-2.1159651E-6,-4.4668564E-3,1.9327816E-4,-1.3879754E-3,-2.65646E-4,9.81085E-5,6.7730335E-4,-1.279801E-3,-3.4794854E-3,3.0002445E-3,2.2770614E-4,5.1192623E-3,-1.4426806E-3,-1.7958983E-4,6.800198E-4,6.0978713E-3,-3.0681115E-4,-2.8262225E-3,3.4930205E-3,1.2012041E-3,7.2497916E-3,7.079959E-4,2.939737E-4,-1.6285516E-3,-4.731126E-3,-9.259731E-4,1.05731E-3,-1.0818203E-3,-1.2269021E-4,1.0593439E-3,1.9237186E-3,4.3371543E-3,-6.288797E-4,1.4527619E-3,-6.019771E-5,4.6637654E-4,-1.1200816E-3,-1.1289418E-4],"categories":[],"categories_nodes":[],"categories_segments":[],"categories_sizes":[],"default_left":[0,0,0,0,0,0,0,0,0,0,0,0,0,0,0,0,0,0,0,0,0,0,0,0,0,0,0,0,0,0,0,0,0,0,0,0,0,0,0,0,0,0,0,0,0,0,0,0,0,0,0,0,0,0,0,0,0,0,0,0,0,0,0,0,0,0,0,0,0,0,0,0,0,0,0,0,0,0,0,0,0,0,0,0,0,0,0,0,0,0,0,0,0,0,0],"id":13,"left_children":[1,3,5,7,9,11,13,15,17,19,21,23,25,27,29,31,33,-1,35,-1,37,39,41,43,45,47,49,51,53,55,-1,57,59,-1,-1,61,-1,-1,-1,63,65,67,69,71,73,75,77,79,-1,81,83,85,-1,87,89,91,93,-1,-1,-1,-1,-1,-1,-1,-1,-1,-1,-1,-1,-1,-1,-1,-1,-1,-1,-1,-1,-1,-1,-1,-1,-1,-1,-1,-1,-1,-1,-1,-1,-1,-1,-1,-1,-1,-1],"loss_changes":[7.0866826E-3,1.6294788E-3,8.0057094E-4,1.0983888E-3,1.0687927E-3,7.938638E-4,5.570473E-4,1.7765593E-3,5.096788E-4,3.066954E-4,7.095732E-4,2.3044422E-3,2.3737159E-3,7.983765E-4,1.5249959E-4,8.202265E-4,4.0693604E-4,0E0,1.8559327E-5,0E0,3.348221E-5,9.5010013E-4,6.5360346E-4,1.2316401E-3,1.2970879E-3,2.5939273E-3,1.0737712E-3,1.5085493E-4,3.2857154E-4,4.5440585E-5,0E0,7.9966546E-4,7.883464E-4,0E0,0E0,1.366234E-6,0E0,0E0,0E0,4.4935764E-4,1.1471207E-3,6.6710304E-4,8.732903E-4,9.5985574E-4,6.2689115E-4,9.7474223E-4,9.2037907E-4,9.717232E-5,0E0,4.4087245E-4,1.1139974E-3,2.8378585E-5,0E0,1.6784808E-4,6.1182065E-5,2.7886495E-6,7.3335395E-6,0E0,0E0,0E0,0E0,0E0,0E0,0E0,0E0,0E0,0E0,0E0,0E0,0E0,0E0,0E0,0E0,0E0,0E0,0E0,0E0,0E0,0E0,0E0,0E0,0E0,0E0,0E0,0E0,0E0,0E0,0E0,0E0,0E0,0E0,0E0,0E0,0E0,0E0],"parents":[2147483647,0,0,1,1,2,2,3,3,4,4,5,5,6,6,7,7,8,8,9,9,10,10,11,11,12,12,13,13,14,14,15,15,16,16,18,18,20,20,21,21,22,22,23,23,24,24,25,25,26,26,27,27,28,28,29,29,31,31,32,32,35,35,39,39,40,40,41,41,42,42,43,43,44,44,45,45,46,46,47,47,49,49,50,50,51,51,53,53,54,54,55,55,56,56],"right_children":[2,4,6,8,10,12,14,16,18,20,22,24,26,28,30,32,34,-1,36,-1,38,40,42,44,46,48,50,52,54,56,-1,58,60,-1,-1,62,-1,-1,-1,64,66,68,70,72,74,76,78,80,-1,82,84,86,-1,88,90,92,94,-1,-1,-1,-1,-1,-1,-1,-1,-1,-1,-1,-1,-1,-1,-1,-1,-1,-1,-1,-1,-1,-1,-1,-1,-1,-1,-1,-1,-1,-1,-1,-1,-1,-1,-1,-1,-1,-1],"split_conditions":[5.326543E-1,2.2258838E-1,8.0437386E-1,2.3487118E-1,2.0880766E-1,7.4146193E-1,8.4062314E-1,2.297783E-1,3.3013782E-1,1.2582384E-1,2.4985021E-1,6.980228E-1,7.351708E-1,7.022169E-1,8.4062314E-1,3.594967E-2,1.342121E-1,6.846616E-3,3.951468E-1,-9.841919E-4,1.4260036E-1,3.5590175E-1,2.3487118E-1,6.737567E-1,7.654284E-1,7.19293E-1,6.587777E-1,7.93589E-1,8.361294E-1,7.75015E-1,1.6252935E-3,8.17855E-2,8.17855E-2,-1.141423E-3,-9.515174E-3,3.1396046E-1,1.1320979E-3,9.176597E-4,4.176373E-3,1.5488316E-1,6.91432E-1,2.672259E-1,2.6333132E-1,7.255842E-1,7.324745E-1,7.127022E-1,7.375674E-1,6.818454E-1,-1.0203048E-2,7.405632E-1,7.8669864E-1,7.0011985E-1,-1.5394212E-3,7.474536E-1,7.5404435E-1,7.642301E-1,8.361294E-1,-2.1159651E-6,-4.4668564E-3,1.9327816E-4,-1.3879754E-3,-2.65646E-4,9.81085E-5,6.7730335E-4,-1.279801E-3,-3.4794854E-3,3.0002445E-3,2.2770614E-4,5.1192623E-3,-1.4426806E-3,-1.7958983E-4,6.800198E-4,6.0978713E-3,-3.0681115E-4,-2.8262225E-3,3.4930205E-3,1.2012041E-3,7.2497916E-3,7.079959E-4,2.939737E-4,-1.6285516E-3,-4.731126E-3,-9.259731E-4,1.05731E-3,-1.0818203E-3,-1.2269021E-4,1.0593439E-3,1.9237186E-3,4.3371543E-3,-6.288797E-4,1.4527619E-3,-6.019771E-5,4.6637654E-4,-1.1200816E-3,-1.1289418E-4],"split_indices":[59,33,11,32,31,32,58,31,1,21,59,34,31,0,55,46,0,0,0,0,22,25,37,36,34,21,15,58,55,28,0,15,42,0,0,0,0,0,0,53,16,40,16,38,26,34,9,28,0,54,9,51,0,38,16,0,0,0,0,0,0,0,0,0,0,0,0,0,0,0,0,0,0,0,0,0,0,0,0,0,0,0,0,0,0,0,0,0,0,0,0,0,0,0,0],"split_type":[0,0,0,0,0,0,0,0,0,0,0,0,0,0,0,0,0,0,0,0,0,0,0,0,0,0,0,0,0,0,0,0,0,0,0,0,0,0,0,0,0,0,0,0,0,0,0,0,0,0,0,0,0,0,0,0,0,0,0,0,0,0,0,0,0,0,0,0,0,0,0,0,0,0,0,0,0,0,0,0,0,0,0,0,0,0,0,0,0,0,0,0,0,0,0],"sum_hessian":[1.44E3,8.15E2,6.25E2,2.03E2,6.12E2,5.72E2,5.3E1,1.99E2,4E0,7E0,6.05E2,4.03E2,1.69E2,4.1E1,1.2E1,1.96E2,3E0,1E0,3E0,1E0,6E0,6.4E1,5.41E2,2.94E2,1.09E2,1.1E1,1.58E2,1.3E1,2.8E1,9E0,3E0,1.7E1,1.79E2,1E0,2E0,2E0,1E0,1E0,5E0,4.1E1,2.3E1,1E1,5.31E2,2.36E2,5.8E1,1E2,9E0,8E0,3E0,1.4E1,1.44E2,1.1E1,2E0,2.2E1,6E0,3E0,6E0,5E0,1.2E1,3.5E1,1.44E2,1E0,1E0,1.8E1,2.3E1,2.1E1,2E0,7E0,3E0,5.4E1,4.77E2,2.34E2,2E0,4.8E1,1E1,2.1E1,7.9E1,6E0,3E0,4E0,4E0,3E0,1.1E1,1.18E2,2.6E1,2E0,9E0,6E0,1.6E1,1E0,5E0,1E0,2E0,5E0,1E0],"tree_param":{"num_deleted":"0","num_feature":"60","num_nodes":"95","size_leaf_vector":"1"}},{"base_weights":[1.5718337E-5,-1.9205499E-3,1.3185256E-3,-1.5098911E-3,-6.6549396E-3,1.3825533E-4,2.3544966E-3,-2.337704E-3,1.5677138E-3,-1.3757443E-2,-2.4083564E-3,8.991578E-3,-1.0926953E-4,1.1481126E-2,2.1047776E-3,-2.2091076E-3,-8.471525E-3,3.9871875E-3,-5.661336E-3,-5.5215578E-3,-2.169038E-3,2.2137591E-4,-7.689959E-3,1.6346266E-2,1.3829271E-4,2.3570137E-4,-5.9531275E-3,6.6985087E-3,5.3844517E-3,1.5475392E-2,1.9494672E-3,-1.566991E-3,-7.051972E-3,9.252726E-3,1.6774958E-3,-1.4929902E-2,-1.4195059E-3,-1.7607362E-3,1.1482835E-3,-3.1909698E-3,3.6135965E-3,1.0844506E-3,-3.915383E-3,1.7667204E-3,6.03078E-3,4.2782426E-3,-1.6283215E-3,-1.7029311E-6,7.3777563E-3,-9.525427E-3,1.489073E-3,-9.819666E-4,7.3437095E-3,-2.1737815E-4,7.955074E-3,1.4019841E-3,4.3856944E-3,-7.8659254E-4,1.6892267E-3,1.6497262E-4,-3.332297E-3,-5.124852E-4,4.014271E-3,-1.12966016E-4,1.9815932E-3,3.0499997E-4,-5.889391E-3,1.251687E-3,-2.064677E-3,8.0337527E-4,-7.627011E-5,-2.3566359E-3,-1.3795719E-4,2.035898E-3,-4.8419835E-5,3.4993442E-4,1.4780074E-3,2.3593437E-3,-6.050574E-5,3.7304866E-3,7.441938E-5,-2.7398588E-4,-3.7722264E-3,1.3300967E-3,-7.691771E-4,2.770275E-4,-7.189125E-4,2.6033057E-3,8.01754E-4,3.404026E-4,2.7445466E-3,1.6437797E-3,-1.1779763E-3],"categories":[],"categories_nodes":[],"categories_segments":[],"categories_sizes":[],"default_left":[0,0,0,0,0,0,0,0,0,0,0,0,0,0,0,0,0,0,0,0,0,0,0,0,0,0,0,0,0,0,0,0,0,0,0,0,0,0,0,0,0,0,0,0,0,0,0,0,0,0,0,0,0,0,0,0,0,0,0,0,0,0,0,0,0,0,0,0,0,0,0,0,0,0,0,0,0,0,0,0,0,0,0,0,0,0,0,0,0,0,0,0,0],"id":14,"left_children":[1,3,5,7,9,11,13,15,17,19,21,23,25,27,29,31,-1,33,35,-1,37,39,41,43,45,47,49,-1,51,53,55,57,59,61,63,65,67,-1,69,71,73,-1,-1,-1,-1,75,-1,77,79,81,83,85,87,-1,-1,89,91,-1,-1,-1,-1,-1,-1,-1,-1,-1,-1,-1,-1,-1,-1,-1,-1,-1,-1,-1,-1,-1,-1,-1,-1,-1,-1,-1,-1,-1,-1,-1,-1,-1,-1,-1,-1],"loss_changes":[3.6375762E-3,1.1175987E-3,1.0536643E-3,1.3666741E-3,1.3542902E-3,8.8631513E-4,1.0219375E-3,1.3431909E-3,2.0164894E-3,8.7569864E-4,4.1837842E-4,7.139841E-4,7.956918E-4,6.733588E-4,9.001468E-4,1.2981263E-3,0E0,1.0303908E-3,1.1189617E-3,0E0,8.038559E-5,2.5461492E-4,6.532641E-4,1.1729868E-4,1.614797E-4,6.324544E-4,5.990708E-4,0E0,1.1947236E-4,9.1357646E-4,5.8605557E-4,2.8471423E-3,1.5168183E-3,1.1993321E-3,6.1992765E-4,6.946991E-4,6.7019294E-4,0E0,9.2621685E-6,1.3651911E-4,1.3284276E-4,0E0,0E0,0E0,0E0,2.324632E-6,0E0,5.710489E-4,4.295907E-4,3.8234878E-4,1.0684262E-4,1.0297877E-5,2.04276E-5,0E0,0E0,7.4335776E-4,7.5781066E-4,0E0,0E0,0E0,0E0,0E0,0E0,0E0,0E0,0E0,0E0,0E0,0E0,0E0,0E0,0E0,0E0,0E0,0E0,0E0,0E0,0E0,0E0,0E0,0E0,0E0,0E0,0E0,0E0,0E0,0E0,0E0,0E0,0E0,0E0,0E0,0E0],"parents":[2147483647,0,0,1,1,2,2,3,3,4,4,5,5,6,6,7,7,8,8,9,9,10,10,11,11,12,12,13,13,14,14,15,15,17,17,18,18,20,20,21,21,22,22,23,23,24,24,25,25,26,26,28,28,29,29,30,30,31,31,32,32,33,33,34,34,35,35,36,36,38,38,39,39,40,40,45,45,47,47,48,48,49,49,50,50,51,51,52,52,55,55,56,56],"right_children":[2,4,6,8,10,12,14,16,18,20,22,24,26,28,30,32,-1,34,36,-1,38,40,42,44,46,48,50,-1,52,54,56,58,60,62,64,66,68,-1,70,72,74,-1,-1,-1,-1,76,-1,78,80,82,84,86,88,-1,-1,90,92,-1,-1,-1,-1,-1,-1,-1,-1,-1,-1,-1,-1,-1,-1,-1,-1,-1,-1,-1,-1,-1,-1,-1,-1,-1,-1,-1,-1,-1,-1,-1,-1,-1,-1,-1,-1],"split_conditions":[4.1132414E-1,4.137208E-1,6.530857E-1,3.6309168E-1,3.843619E-1,3.73577E-1,6.4619535E-1,7.3666865E-1,3.9724386E-1,4.955063E-1,4.011384E-1,4.6674657E-1,8.0437386E-1,6.69263E-1,3.6399043E-1,3.4451768E-1,-8.471525E-3,3.687837E-1,3.5590175E-1,-5.5215578E-3,5.2546436E-1,3.92151E-1,4.6644697E-1,4.6195325E-1,5.0539243E-1,8.0347514E-1,8.361294E-1,6.6985087E-3,6.7795086E-1,3.73577E-1,8.067705E-1,3.2055122E-1,3.3852607E-1,2.4985021E-1,3.92151E-1,3.8166568E-1,4.0832835E-1,-1.7607362E-3,5.3205514E-1,4.0203714E-1,6.69263E-1,1.0844506E-3,-3.915383E-3,1.7667204E-3,6.03078E-3,8.529059E-1,-1.6283215E-3,3.5769922E-1,8.289395E-1,7.735171E-1,4.736369E-1,4.4517675E-1,7.162972E-1,-2.1737815E-4,7.955074E-3,8.32834E-1,8.2145E-1,-7.8659254E-4,1.6892267E-3,1.6497262E-4,-3.332297E-3,-5.124852E-4,4.014271E-3,-1.12966016E-4,1.9815932E-3,3.0499997E-4,-5.889391E-3,1.251687E-3,-2.064677E-3,8.0337527E-4,-7.627011E-5,-2.3566359E-3,-1.3795719E-4,2.035898E-3,-4.8419835E-5,3.4993442E-4,1.4780074E-3,2.3593437E-3,-6.050574E-5,3.7304866E-3,7.441938E-5,-2.7398588E-4,-3.7722264E-3,1.3300967E-3,-7.691771E-4,2.770275E-4,-7.189125E-4,2.6033057E-3,8.01754E-4,3.404026E-4,2.7445466E-3,1.6437797E-3,-1.1779763E-3],"split_indices":[49,43,57,44,59,57,58,16,49,14,49,48,4,55,8,45,0,38,57,0,39,51,10,0,18,8,14,0,33,7,57,48,48,10,46,33,54,0,2,46,23,0,0,0,0,0,0,31,10,12,59,0,0,0,0,44,13,0,0,0,0,0,0,0,0,0,0,0,0,0,0,0,0,0,0,0,0,0,0,0,0,0,0,0,0,0,0,0,0,0,0,0,0],"split_type":[0,0,0,0,0,0,0,0,0,0,0,0,0,0,0,0,0,0,0,0,0,0,0,0,0,0,0,0,0,0,0,0,0,0,0,0,0,0,0,0,0,0,0,0,0,0,0,0,0,0,0,0,0,0,0,0,0,0,0,0,0,0,0,0,0,0,0,0,0,0,0,0,0,0,0,0,0,0,0,0,0,0,0,0,0,0,0,0,0,0,0,0,0],"sum_hessian":[1.44E3,5.79E2,8.61E2,5.34E2,4.5E1,4.03E2,4.58E2,4.21E2,1.13E2,1.6E1,2.9E1,1E1,3.93E2,1.1E1,4.47E2,4.2E2,1E0,8.5E1,2.8E1,1.1E1,5E0,2E1,9E0,5E0,5E0,3.72E2,2.1E1,3E0,8E0,4E0,4.43E2,3.72E2,4.8E1,2.5E1,6E1,8E0,2E1,2E0,3E0,1E1,1E1,3E0,6E0,2E0,3E0,3E0,2E0,3.61E2,1.1E1,1.4E1,7E0,2E0,6E0,2E0,2E0,3.63E2,8E1,3.25E2,4.7E1,1.7E1,3.1E1,7E0,1.8E1,4.3E1,1.7E1,2E0,6E0,1E1,1E1,1E0,2E0,3E0,7E0,5E0,5E0,1E0,2E0,8E0,3.53E2,6E0,5E0,4E0,1E1,4E0,3E0,1E0,1E0,4E0,2E0,3.52E2,1.1E1,7.1E1,9E0],"tree_param":{"num_deleted":"0","num_feature":"60","num_nodes":"93","size_leaf_vector":"1"}},{"base_weights":[1.7878567E-5,-1.1900193E-3,1.1323419E-3,-3.4191285E-3,-7.2581373E-4,6.291229E-4,2.7108085E-3,-1.9197447E-3,-7.613517E-3,1.1592768E-3,-1.4956283E-3,1.3303284E-3,-2.348731E-3,1.0068146E-2,2.2216768E-3,-3.409979E-3,4.5924233E-3,-1.215714E-2,-3.156583E-3,-7.888124E-3,1.7245599E-3,-1.5460606E-2,-1.2487365E-3,5.8710936E-4,4.7673546E-3,-3.7695586E-3,5.043762E-3,3.1849623E-3,1.3546399E-2,-2.9601965E-3,3.213835E-3,-1.1696066E-2,-2.3539385E-3,-1.2601838E-3,7.899317E-3,-1.288075E-4,-1.515349E-2,-2.7463068E-3,-1.2174634E-3,-1.2392984E-2,1.9674115E-3,4.199555E-3,-7.4105465E-4,-1.6727016E-3,-6.444117E-3,1.2758598E-2,-1.3860313E-3,4.0829837E-4,8.873135E-3,6.4398856E-3,3.861493E-3,-2.8685334E-3,-1.8873692E-2,9.113414E-3,-2.2080054E-3,-3.629327E-5,1.6287745E-3,4.354227E-3,1.1610389E-3,3.2566327E-3,-7.826358E-3,1.1089819E-2,2.3475937E-3,-4.897772E-3,4.3869132E-4,2.868236E-4,-1.7078783E-3,1.3735414E-3,-1.353402E-3,2.9267238E-3,-9.092242E-5,6.683741E-4,-4.971057E-4,-6.1454317E-3,-1.0778225E-3,2.8350428E-4,-1.2774809E-3,-6.115213E-4,-4.133704E-3,-5.8584474E-4,1.1775278E-3,8.39268E-4,4.4379365E-3,-2.6326785E-3,2.8465953E-4,1.7907322E-4,4.984057E-3,-4.668645E-3,-3.4999003E-4,3.5923274E-4,-4.6392655E-4,3.8600743E-3,1.6192169E-3,3.2304286E-3,3.020619E-4,-1.1150411E-3,2.2434406E-3,-1.0795489E-2,-1.67989E-3,4.4084406E-3,9.27157E-4,-2.5386215E-4,2.4552941E-3,-5.7748676E-4,-4.5416644E-3,1.7036767E-3,4.7068326E-3,2.3047838E-3,4.1218539E-4],"categories":[],"categories_nodes":[],"categories_segments":[],"categories_sizes":[],"default_left":[0,0,0,0,0,0,0,0,0,0,0,0,0,0,0,0,0,0,0,0,0,0,0,0,0,0,0,0,0,0,0,0,0,0,0,0,0,0,0,0,0,0,0,0,0,0,0,0,0,0,0,0,0,0,0,0,0,0,0,0,0,0,0,0,0,0,0,0,0,0,0,0,0,0,0,0,0,0,0,0,0,0,0,0,0,0,0,0,0,0,0,0,0,0,0,0,0,0,0,0,0,0,0,0,0,0,0,0,0],"id":15,"left_children":[1,3,5,7,9,11,13,15,17,19,21,23,25,27,29,31,33,35,37,39,41,43,45,47,49,51,53,55,57,59,61,63,65,67,69,71,73,-1,75,77,79,81,83,-1,-1,85,87,89,91,-1,93,95,97,99,-1,-1,-1,-1,-1,101,103,105,107,-1,-1,-1,-1,-1,-1,-1,-1,-1,-1,-1,-1,-1,-1,-1,-1,-1,-1,-1,-1,-1,-1,-1,-1,-1,-1,-1,-1,-1,-1,-1,-1,-1,-1,-1,-1,-1,-1,-1,-1,-1,-1,-1,-1,-1,-1],"loss_changes":[1.9411609E-3,7.1357563E-4,5.9403037E-4,7.3377474E-4,8.347055E-4,1.1933347E-3,6.289977E-4,8.793745E-4,5.893947E-4,8.676989E-4,1.3874115E-3,1.1773631E-3,1.1638897E-3,2.202111E-4,8.886654E-4,6.1125064E-4,3.3897167E-4,5.386644E-4,1.8657169E-4,4.683602E-4,9.6728874E-4,2.9676862E-4,7.907834E-4,5.6087907E-4,1.1575158E-3,1.1979071E-3,9.75698E-4,3.7754187E-5,9.3739945E-6,8.725462E-4,9.564059E-4,5.1124266E-4,7.3488225E-4,1.535317E-4,1.7045543E-4,1.8097968E-5,6.660067E-4,0E0,9.6083575E-5,7.2375056E-5,3.83632E-5,1.1319335E-3,1.0945452E-3,0E0,0E0,1.7761282E-4,1.2228182E-3,5.787677E-4,4.160317E-5,0E0,1.5467E-3,8.001504E-4,9.341774E-4,4.252108E-4,0E0,0E0,0E0,0E0,0E0,2.6975293E-4,6.613246E-4,2.5933387E-4,6.6991104E-4,0E0,0E0,0E0,0E0,0E0,0E0,0E0,0E0,0E0,0E0,0E0,0E0,0E0,0E0,0E0,0E0,0E0,0E0,0E0,0E0,0E0,0E0,0E0,0E0,0E0,0E0,0E0,0E0,0E0,0E0,0E0,0E0,0E0,0E0,0E0,0E0,0E0,0E0,0E0,0E0,0E0,0E0,0E0,0E0,0E0,0E0],"parents":[2147483647,0,0,1,1,2,2,3,3,4,4,5,5,6,6,7,7,8,8,9,9,10,10,11,11,12,12,13,13,14,14,15,15,16,16,17,17,18,18,19,19,20,20,21,21,22,22,23,23,24,24,25,25,26,26,27,27,28,28,29,29,30,30,31,31,32,32,33,33,34,34,35,35,36,36,38,38,39,39,40,40,41,41,42,42,45,45,46,46,47,47,48,48,50,50,51,51,52,52,53,53,59,59,60,60,61,61,62,62],"right_children":[2,4,6,8,10,12,14,16,18,20,22,24,26,28,30,32,34,36,38,40,42,44,46,48,50,52,54,56,58,60,62,64,66,68,70,72,74,-1,76,78,80,82,84,-1,-1,86,88,90,92,-1,94,96,98,100,-1,-1,-1,-1,-1,102,104,106,108,-1,-1,-1,-1,-1,-1,-1,-1,-1,-1,-1,-1,-1,-1,-1,-1,-1,-1,-1,-1,-1,-1,-1,-1,-1,-1,-1,-1,-1,-1,-1,-1,-1,-1,-1,-1,-1,-1,-1,-1,-1,-1,-1,-1,-1,-1],"split_conditions":[4.7603354E-1,1.3511084E-1,7.456561E-1,1.3750748E-1,2.8460157E-1,7.1809465E-1,7.2139007E-1,1.1204314E-1,1.342121E-1,8.17855E-2,2.297783E-1,6.740563E-1,8.0347514E-1,7.438586E-1,7.489515E-1,2.546435E-2,6.980228E-2,5.7519473E-2,9.286998E-2,9.88616E-2,3.1995207E-1,2.8460157E-1,2.0880766E-1,8.529059E-1,6.0425407E-1,8.0437386E-1,8.148592E-1,7.3067707E-1,7.6902336E-1,7.324745E-1,7.5404435E-1,9.286998E-2,1.3151588E-1,8.7777115E-2,2.3487118E-1,7.459556E-2,1.342121E-1,-2.7463068E-3,1.6596764E-1,5.032954E-2,1.05152786E-1,3.4781307E-1,2.7201918E-1,-1.6727016E-3,-6.444117E-3,3.331336E-1,2.2258838E-1,6.198322E-1,7.19293E-1,6.4398856E-3,6.50689E-1,7.654284E-1,6.527861E-1,8.0437386E-1,-2.2080054E-3,-3.629327E-5,1.6287745E-3,4.354227E-3,1.1610389E-3,7.19293E-1,7.654284E-1,7.474536E-1,6.980228E-1,-4.897772E-3,4.3869132E-4,2.868236E-4,-1.7078783E-3,1.3735414E-3,-1.353402E-3,2.9267238E-3,-9.092242E-5,6.683741E-4,-4.971057E-4,-6.1454317E-3,-1.0778225E-3,2.8350428E-4,-1.2774809E-3,-6.115213E-4,-4.133704E-3,-5.8584474E-4,1.1775278E-3,8.39268E-4,4.4379365E-3,-2.6326785E-3,2.8465953E-4,1.7907322E-4,4.984057E-3,-4.668645E-3,-3.4999003E-4,3.5923274E-4,-4.6392655E-4,3.8600743E-3,1.6192169E-3,3.2304286E-3,3.020619E-4,-1.1150411E-3,2.2434406E-3,-1.0795489E-2,-1.67989E-3,4.4084406E-3,9.27157E-4,-2.5386215E-4,2.4552941E-3,-5.7748676E-4,-4.5416644E-3,1.7036767E-3,4.7068326E-3,2.3047838E-3,4.1218539E-4],"split_indices":[54,19,10,12,2,17,13,12,36,8,7,11,40,11,14,42,25,22,16,2,59,25,12,56,15,37,58,0,0,24,11,12,46,0,51,1,49,0,13,5,2,27,47,0,0,4,14,4,39,0,1,12,0,33,0,0,0,0,0,29,10,29,43,0,0,0,0,0,0,0,0,0,0,0,0,0,0,0,0,0,0,0,0,0,0,0,0,0,0,0,0,0,0,0,0,0,0,0,0,0,0,0,0,0,0,0,0,0,0],"split_type":[0,0,0,0,0,0,0,0,0,0,0,0,0,0,0,0,0,0,0,0,0,0,0,0,0,0,0,0,0,0,0,0,0,0,0,0,0,0,0,0,0,0,0,0,0,0,0,0,0,0,0,0,0,0,0,0,0,0,0,0,0,0,0,0,0,0,0,0,0,0,0,0,0,0,0,0,0,0,0,0,0,0,0,0,0,0,0,0,0,0,0,0,0,0,0,0,0,0,0,0,0,0,0,0,0,0,0,0,0],"sum_hessian":[1.44E3,6.91E2,7.49E2,1.18E2,5.73E2,5.69E2,1.8E2,8.8E1,3E1,1.66E2,4.07E2,4.61E2,1.08E2,1E1,1.7E2,7.2E1,1.6E1,1.4E1,1.6E1,9E0,1.57E2,6E0,4.01E2,3.8E2,8.1E1,9.1E1,1.7E1,4E0,6E0,2.7E1,1.43E2,7E0,6.5E1,6E0,1E1,3E0,1.1E1,3E0,1.3E1,6E0,3E0,7.8E1,7.9E1,3E0,3E0,3E0,3.98E2,3.73E2,7E0,3E0,7.8E1,8.7E1,4E0,1.3E1,4E0,2E0,2E0,5E0,1E0,1.2E1,1.5E1,1.3E1,1.3E2,5E0,2E0,3.3E1,3.2E1,2E0,4E0,8E0,2E0,1E0,2E0,7E0,4E0,8E0,5E0,1E0,5E0,1E0,2E0,7E1,8E0,1.3E1,6.6E1,1E0,2E0,5E0,3.93E2,2.66E2,1.07E2,2E0,5E0,2.2E1,5.6E1,8.1E1,6E0,1E0,3E0,6E0,7E0,7E0,5E0,9E0,6E0,7E0,6E0,1.9E1,1.11E2],"tree_param":{"num_deleted":"0","num_feature":"60","num_nodes":"109","size_leaf_vector":"1"}},{"base_weights":[1.0731518E-5,-1.3606547E-3,6.928533E-4,-7.4050715E-4,-6.9136354E-3,5.93377E-3,4.6522394E-4,-3.209112E-3,-7.231903E-5,-1.2031157E-2,-2.4877423E-3,-2.8185921E-3,7.4305953E-3,-5.617588E-4,1.2297389E-3,-1.3790582E-3,-7.563721E-3,-5.297633E-3,8.3526655E-5,-6.3020587E-3,-7.352339E-3,3.2717164E-4,-6.6119055E-3,1.0733696E-2,-1.3525243E-3,-4.2645505E-4,-3.3090487E-3,9.988985E-3,7.945396E-4,-6.03221E-3,-1.0282661E-5,-6.1348546E-3,-5.0849095E-3,4.4783805E-3,-9.3441085E-5,-3.0245632E-3,-1.1302045E-2,-1.8091771E-3,3.6375523E-3,5.592138E-4,-7.645905E-3,2.5583766E-3,1.4679223E-2,1.3575554E-3,-3.8371831E-3,7.1500493E-3,-6.236765E-4,-5.391518E-3,1.4103686E-2,-1.9763603E-3,1.3350823E-3,8.653563E-4,-2.2877704E-3,-3.080506E-3,2.4819621E-4,-3.053198E-3,-1.1992126E-3,-3.3523636E-3,4.2568736E-5,-2.4486848E-3,2.7140306E-4,-4.5201704E-3,-1.2949109E-6,4.889697E-4,-1.4840171E-3,-3.60477E-4,1.7440581E-3,-6.126657E-4,-2.4124873E-3,2.26953E-3,-1.18841E-3,2.8802264E-3,6.386442E-3,1.2612373E-3,-3.3502805E-4,-1.2956519E-3,-2.1433533E-4,3.7493082E-4,3.2625825E-3,-2.361047E-3,-1.223167E-4,1.3181269E-3,-2.4681974E-3,1.5928329E-3,5.857219E-3,-3.7813003E-4,-3.8678206E-3,3.5067918E-3,3.3235902E-4],"categories":[],"categories_nodes":[],"categories_segments":[],"categories_sizes":[],"default_left":[0,0,0,0,0,0,0,0,0,0,0,0,0,0,0,0,0,0,0,0,0,0,0,0,0,0,0,0,0,0,0,0,0,0,0,0,0,0,0,0,0,0,0,0,0,0,0,0,0,0,0,0,0,0,0,0,0,0,0,0,0,0,0,0,0,0,0,0,0,0,0,0,0,0,0,0,0,0,0,0,0,0,0,0,0,0,0,0,0],"id":16,"left_children":[1,3,5,7,9,11,13,15,17,19,21,-1,23,25,27,29,31,-1,33,-1,35,37,39,41,43,45,-1,47,49,51,53,55,-1,-1,57,59,61,63,65,-1,67,69,71,73,75,77,79,81,83,85,87,-1,-1,-1,-1,-1,-1,-1,-1,-1,-1,-1,-1,-1,-1,-1,-1,-1,-1,-1,-1,-1,-1,-1,-1,-1,-1,-1,-1,-1,-1,-1,-1,-1,-1,-1,-1,-1,-1],"loss_changes":[1.3489295E-3,1.6443967E-3,1.1460853E-3,7.1234873E-4,1.0572507E-3,9.876108E-4,7.261637E-4,7.227325E-4,9.3607866E-4,7.694559E-4,3.1561067E-4,0E0,1.0879443E-3,5.547798E-4,2.0124333E-3,4.202999E-4,2.581214E-4,0E0,8.919416E-4,0E0,2.3931125E-4,1.2680715E-4,1.1065774E-4,8.333558E-4,7.927904E-5,5.887107E-4,0E0,1.6581945E-3,7.6052034E-4,2.351547E-4,4.5528932E-4,1.7533498E-4,0E0,0E0,8.778038E-4,1.8907018E-4,3.402396E-4,1.2675553E-4,8.069442E-5,0E0,5.752081E-6,3.5639363E-4,3.9975508E-4,4.6954854E-5,5.938906E-6,2.0620716E-4,5.945859E-4,2.0264371E-4,8.4970053E-4,6.324217E-4,9.845844E-4,0E0,0E0,0E0,0E0,0E0,0E0,0E0,0E0,0E0,0E0,0E0,0E0,0E0,0E0,0E0,0E0,0E0,0E0,0E0,0E0,0E0,0E0,0E0,0E0,0E0,0E0,0E0,0E0,0E0,0E0,0E0,0E0,0E0,0E0,0E0,0E0,0E0,0E0],"parents":[2147483647,0,0,1,1,2,2,3,3,4,4,5,5,6,6,7,7,8,8,9,9,10,10,12,12,13,13,14,14,15,15,16,16,18,18,20,20,21,21,22,22,23,23,24,24,25,25,27,27,28,28,29,29,30,30,31,31,34,34,35,35,36,36,37,37,38,38,40,40,41,41,42,42,43,43,44,44,45,45,46,46,47,47,48,48,49,49,50,50],"right_children":[2,4,6,8,10,12,14,16,18,20,22,-1,24,26,28,30,32,-1,34,-1,36,38,40,42,44,46,-1,48,50,52,54,56,-1,-1,58,60,62,64,66,-1,68,70,72,74,76,78,80,82,84,86,88,-1,-1,-1,-1,-1,-1,-1,-1,-1,-1,-1,-1,-1,-1,-1,-1,-1,-1,-1,-1,-1,-1,-1,-1,-1,-1,-1,-1,-1,-1,-1,-1,-1,-1,-1,-1,-1,-1],"split_conditions":[3.8975435E-1,3.7537447E-1,3.9005393E-1,1.3151588E-1,3.8196525E-1,1.1204314E-1,6.1354107E-1,1.4260036E-1,1.7675254E-2,3.777711E-1,5.1617736E-1,-2.8185921E-3,4.9640504E-1,6.431995E-1,5.937687E-1,3.594967E-2,1.8424205E-1,-5.297633E-3,6.980228E-2,-6.3020587E-3,3.4661475E-1,4.7962853E-1,3.8166568E-1,2.7201918E-1,4.0832835E-1,3.780707E-1,-3.3090487E-3,4.7423607E-1,6.6596764E-1,8.17855E-2,1.7675254E-2,4.493709E-2,-5.0849095E-3,4.4783805E-3,4.493709E-2,3.8945475E-1,7.3067707E-1,3.825644E-1,3.92151E-1,5.592138E-4,3.594967E-1,2.825045E-1,4.445776E-1,3.903535E-1,4.6674657E-1,4.011384E-1,3.7896943E-1,3.4991014E-1,6.569802E-1,7.7860993E-1,6.530857E-1,8.653563E-4,-2.2877704E-3,-3.080506E-3,2.4819621E-4,-3.053198E-3,-1.1992126E-3,-3.3523636E-3,4.2568736E-5,-2.4486848E-3,2.7140306E-4,-4.5201704E-3,-1.2949109E-6,4.889697E-4,-1.4840171E-3,-3.60477E-4,1.7440581E-3,-6.126657E-4,-2.4124873E-3,2.26953E-3,-1.18841E-3,2.8802264E-3,6.386442E-3,1.2612373E-3,-3.3502805E-4,-1.2956519E-3,-2.1433533E-4,3.7493082E-4,3.2625825E-3,-2.361047E-3,-1.223167E-4,1.3181269E-3,-2.4681974E-3,1.5928329E-3,5.857219E-3,-3.7813003E-4,-3.8678206E-3,3.5067918E-3,3.3235902E-4],"split_indices":[9,6,14,47,59,56,38,14,16,3,46,0,43,40,30,45,32,0,37,0,21,47,6,38,8,16,0,16,34,8,19,54,0,0,27,4,0,36,3,0,0,41,7,11,8,2,18,4,56,41,35,0,0,0,0,0,0,0,0,0,0,0,0,0,0,0,0,0,0,0,0,0,0,0,0,0,0,0,0,0,0,0,0,0,0,0,0,0,0],"split_type":[0,0,0,0,0,0,0,0,0,0,0,0,0,0,0,0,0,0,0,0,0,0,0,0,0,0,0,0,0,0,0,0,0,0,0,0,0,0,0,0,0,0,0,0,0,0,0,0,0,0,0,0,0,0,0,0,0,0,0,0,0,0,0,0,0,0,0,0,0,0,0,0,0,0,0,0,0,0,0,0,0,0,0,0,0,0,0,0,0],"sum_hessian":[1.44E3,4.78E2,9.62E2,4.31E2,4.7E1,3.9E1,9.23E2,9.1E1,3.4E2,2.1E1,2.6E1,3E0,3.6E1,3.94E2,5.29E2,6.5E1,2.6E1,2E0,3.38E2,6E0,1.5E1,1.6E1,1E1,2.6E1,1E1,3.9E2,4E0,2.4E1,5.05E2,1.4E1,5.1E1,2.4E1,2E0,3E0,3.35E2,8E0,7E0,1E1,6E0,1E0,9E0,9E0,1.7E1,5E0,5E0,9E0,3.81E2,5E0,1.9E1,8.2E1,4.23E2,2E0,1.2E1,3E0,4.8E1,7E0,1.7E1,6E0,3.29E2,3E0,5E0,5E0,2E0,5E0,5E0,2E0,4E0,1E0,8E0,5E0,4E0,1.1E1,6E0,2E0,3E0,4E0,1E0,4E0,5E0,1E1,3.71E2,1E0,4E0,8E0,1.1E1,7.8E1,4E0,8E0,4.15E2],"tree_param":{"num_deleted":"0","num_feature":"60","num_nodes":"89","size_leaf_vector":"1"}},{"base_weights":[-7.834139E-6,-1.0209269E-3,4.960903E-4,-5.5937003E-4,-5.153669E-3,5.7312716E-3,3.389523E-4,-6.3670485E-4,4.915792E-3,-9.012757E-3,-1.81835E-3,1.4942433E-3,1.2143566E-2,-4.15652E-3,4.975337E-4,-4.6392504E-4,-6.1565544E-3,-1.2178929E-2,-1.9495916E-3,2.5188574E-4,-4.8525007E-3,-3.421857E-3,5.7693096E-3,1.3953936E-2,-8.9402054E-4,2.44282E-3,-6.1020483E-3,4.1729924E-3,3.182897E-4,-1.2547526E-3,1.6375213E-3,-4.329526E-3,-2.2308198E-3,-5.3154556E-3,-4.8491918E-3,1.4044165E-3,-1.6964112E-3,-1.5539364E-3,3.0536226E-3,4.7533217E-4,-5.654639E-3,-1.043421E-3,-1.5347765E-3,3.8824924E-3,-1.1691848E-3,4.936568E-3,2.6325185E-3,4.3148748E-3,-6.346688E-4,-4.0357527E-3,-3.0728234E-3,1.9419516E-3,1.7235579E-2,-5.990613E-3,4.5198743E-4,-1.8284487E-4,-1.5842577E-3,9.42196E-4,-7.610379E-4,1.2878381E-4,-1.2227297E-3,-1.5155823E-4,-2.639056E-3,7.71809E-4,-4.903056E-4,-8.5741584E-4,8.6291734E-4,1.4628519E-3,-3.0055048E-4,-6.5427425E-4,-1.8751369E-3,-4.103199E-4,3.807396E-5,1.0528117E-3,-8.4203127E-4,9.847016E-4,1.9993186E-4,4.3643414E-4,1.614368E-3,6.681774E-4,-1.9050428E-3,-1.8755347E-5,2.2080813E-3,7.591355E-3,2.0624949E-3,-8.564827E-4,-6.2151956E-3,-2.623601E-3,1.5840097E-4],"categories":[],"categories_nodes":[],"categories_segments":[],"categories_sizes":[],"default_left":[0,0,0,0,0,0,0,0,0,0,0,0,0,0,0,0,0,0,0,0,0,0,0,0,0,0,0,0,0,0,0,0,0,0,0,0,0,0,0,0,0,0,0,0,0,0,0,0,0,0,0,0,0,0,0,0,0,0,0,0,0,0,0,0,0,0,0,0,0,0,0,0,0,0,0,0,0,0,0,0,0,0,0,0,0,0,0,0,0],"id":17,"left_children":[1,3,5,7,9,11,13,15,-1,17,19,21,23,25,27,29,31,33,35,37,39,41,43,45,-1,47,49,51,53,55,57,-1,59,61,-1,63,-1,65,67,-1,69,71,-1,-1,73,-1,75,77,-1,-1,79,81,83,85,87,-1,-1,-1,-1,-1,-1,-1,-1,-1,-1,-1,-1,-1,-1,-1,-1,-1,-1,-1,-1,-1,-1,-1,-1,-1,-1,-1,-1,-1,-1,-1,-1,-1,-1],"loss_changes":[7.36169E-4,9.108074E-4,7.902654E-4,5.765541E-4,6.0143345E-4,7.425885E-4,6.693408E-4,4.0819656E-4,0E0,4.682464E-4,1.7082028E-4,3.9804153E-4,3.4275698E-4,4.2576063E-4,5.948893E-4,6.9838314E-4,3.9012637E-4,3.2434962E-4,1.0735738E-4,9.075559E-5,6.5755914E-5,3.092496E-5,5.1278295E-4,2.398626E-4,0E0,7.739672E-5,5.153177E-4,1.1905424E-3,7.314794E-4,7.891483E-4,7.295399E-4,0E0,5.082703E-5,1.1278091E-4,0E0,2.1955357E-5,0E0,7.177516E-5,5.6624034E-5,0E0,7.0653623E-6,2.0713496E-6,0E0,0E0,5.5819244E-5,0E0,1.6453123E-6,1.04707E-5,0E0,0E0,3.4417445E-4,4.0231174E-4,3.27626E-4,7.7205896E-4,5.9679063E-4,0E0,0E0,0E0,0E0,0E0,0E0,0E0,0E0,0E0,0E0,0E0,0E0,0E0,0E0,0E0,0E0,0E0,0E0,0E0,0E0,0E0,0E0,0E0,0E0,0E0,0E0,0E0,0E0,0E0,0E0,0E0,0E0,0E0,0E0],"parents":[2147483647,0,0,1,1,2,2,3,3,4,4,5,5,6,6,7,7,9,9,10,10,11,11,12,12,13,13,14,14,15,15,16,16,17,17,18,18,19,19,20,20,21,21,22,22,23,23,25,25,26,26,27,27,28,28,29,29,30,30,32,32,33,33,35,35,37,37,38,38,40,40,41,41,44,44,46,46,47,47,50,50,51,51,52,52,53,53,54,54],"right_children":[2,4,6,8,10,12,14,16,-1,18,20,22,24,26,28,30,32,34,36,38,40,42,44,46,-1,48,50,52,54,56,58,-1,60,62,-1,64,-1,66,68,-1,70,72,-1,-1,74,-1,76,78,-1,-1,80,82,84,86,88,-1,-1,-1,-1,-1,-1,-1,-1,-1,-1,-1,-1,-1,-1,-1,-1,-1,-1,-1,-1,-1,-1,-1,-1,-1,-1,-1,-1,-1,-1,-1,-1,-1,-1],"split_conditions":[3.8975435E-1,3.7537447E-1,3.8825643E-1,6.980228E-1,3.8196525E-1,3.8526064E-1,3.9394847E-1,3.8166568E-1,4.915792E-3,3.9874175E-1,5.1617736E-1,4.6075493E-1,6.0425407E-1,4.4817257E-1,4.0353504E-1,2.9868186E-1,3.675854E-1,2.7831036E-1,4.2540443E-1,4.62852E-1,3.8166568E-1,3.9095268E-1,4.7303775E-1,6.7165965E-1,-8.9402054E-4,4.167166E-1,4.7183943E-1,4.2780107E-1,3.7896943E-1,2.8460157E-1,3.6039543E-1,-4.329526E-3,3.5260636E-1,3.8825643E-1,-4.8491918E-3,7.360695E-1,-1.6964112E-3,5.281606E-1,5.0808865E-1,4.7533217E-4,3.675854E-1,3.7207907E-1,-1.5347765E-3,3.8824924E-3,3.5530257E-1,4.936568E-3,4.3888557E-1,3.777711E-1,-6.346688E-4,-4.0357527E-3,3.9934093E-1,4.167166E-1,3.8166568E-1,6.051528E-1,2.2258838E-1,-1.8284487E-4,-1.5842577E-3,9.42196E-4,-7.610379E-4,1.2878381E-4,-1.2227297E-3,-1.5155823E-4,-2.639056E-3,7.71809E-4,-4.903056E-4,-8.5741584E-4,8.6291734E-4,1.4628519E-3,-3.0055048E-4,-6.5427425E-4,-1.8751369E-3,-4.103199E-4,3.807396E-5,1.0528117E-3,-8.4203127E-4,9.847016E-4,1.9993186E-4,4.3643414E-4,1.614368E-3,6.681774E-4,-1.9050428E-3,-1.8755347E-5,2.2080813E-3,7.591355E-3,2.0624949E-3,-8.564827E-4,-6.2151956E-3,-2.623601E-3,1.5840097E-4],"split_indices":[9,6,6,53,59,4,2,4,0,5,46,55,20,37,12,5,0,27,6,26,6,10,17,57,0,1,44,11,22,2,16,0,10,1,0,0,0,2,25,0,0,2,0,0,4,0,0,38,0,0,6,18,14,0,56,0,0,0,0,0,0,0,0,0,0,0,0,0,0,0,0,0,0,0,0,0,0,0,0,0,0,0,0,0,0,0,0,0,0],"split_type":[0,0,0,0,0,0,0,0,0,0,0,0,0,0,0,0,0,0,0,0,0,0,0,0,0,0,0,0,0,0,0,0,0,0,0,0,0,0,0,0,0,0,0,0,0,0,0,0,0,0,0,0,0,0,0,0,0,0,0,0,0,0,0,0,0,0,0,0,0,0,0,0,0,0,0,0,0,0,0,0,0,0,0,0,0,0,0,0,0],"sum_hessian":[1.44E3,4.78E2,9.62E2,4.31E2,4.7E1,2.7E1,9.35E2,4.3E2,1E0,2.1E1,2.6E1,1.7E1,1E1,3.1E1,9.04E2,4.18E2,1.2E1,1.4E1,7E0,1.6E1,1E1,8E0,9E0,9E0,1E0,7E0,2.4E1,4.1E1,8.63E2,3.04E2,1.14E2,3E0,9E0,6E0,8E0,4E0,3E0,1E1,6E0,1E0,9E0,4E0,4E0,4E0,5E0,7E0,2E0,5E0,2E0,6E0,1.8E1,3.6E1,5E0,1.7E1,8.46E2,2.63E2,4.1E1,8.4E1,3E1,4E0,5E0,3E0,3E0,3E0,1E0,8E0,2E0,4E0,2E0,2E0,7E0,3E0,1E0,1E0,4E0,1E0,1E0,2E0,3E0,7E0,1.1E1,2.7E1,9E0,2E0,3E0,1.5E1,2E0,6E0,8.4E2],"tree_param":{"num_deleted":"0","num_feature":"60","num_nodes":"89","size_leaf_vector":"1"}},{"base_weights":[-9.778599E-6,-8.620142E-4,3.97139E-4,-7.252363E-4,-1.6478546E-2,1.4080514E-2,3.1217773E-4,-8.245491E-4,6.9765127E-3,1.6797737E-3,-7.711268E-3,6.8380507E-3,-2.2303064E-3,1.0144815E-2,2.5078226E-4,-4.131962E-4,-3.3504844E-3,4.2162093E-5,2.4946798E-3,-1.5292169E-3,5.2557886E-4,4.9591484E-3,2.8193519E-3,7.3824776E-5,2.1832953E-3,-9.6770143E-4,2.1751167E-3,-7.0634475E-3,-2.319299E-3,1.1715979E-3,-6.578565E-5,-4.8110098E-5,3.3294652E-3,3.4663617E-3,-4.2046905E-3,-1.7280705E-4,-1.9061388E-3,1.6467051E-3,-2.2799525E-4,-3.126522E-3,-3.7952335E-4,3.3521497E-5,-1.4320014E-3,-3.4749507E-6,2.1350277E-3,1.5129114E-3,4.8689482E-5,1.6363324E-3,-1.8807248E-3],"categories":[],"categories_nodes":[],"categories_segments":[],"categories_sizes":[],"default_left":[0,0,0,0,0,0,0,0,0,0,0,0,0,0,0,0,0,0,0,0,0,0,0,0,0,0,0,0,0,0,0,0,0,0,0,0,0,0,0,0,0,0,0,0,0,0,0,0,0],"id":18,"left_children":[1,3,5,7,9,11,13,15,17,-1,-1,-1,19,21,23,25,27,-1,-1,-1,-1,-1,29,31,33,35,37,-1,39,-1,-1,41,43,45,47,-1,-1,-1,-1,-1,-1,-1,-1,-1,-1,-1,-1,-1,-1],"loss_changes":[5.000662E-4,9.83423E-4,1.1302601E-3,3.5989293E-4,9.586548E-4,9.0353226E-4,5.836283E-4,4.745009E-4,5.3755066E-5,0E0,0E0,0E0,4.3182466E-5,2.3406313E-4,3.301844E-4,5.690219E-4,1.2781356E-3,0E0,0E0,0E0,0E0,0E0,1.4055913E-5,3.51881E-4,6.78468E-4,6.840743E-4,6.850357E-4,0E0,5.164051E-4,0E0,0E0,6.4633216E-4,4.049954E-4,3.5342324E-4,3.133576E-4,0E0,0E0,0E0,0E0,0E0,0E0,0E0,0E0,0E0,0E0,0E0,0E0,0E0,0E0],"parents":[2147483647,0,0,1,1,2,2,3,3,4,4,5,5,6,6,7,7,8,8,12,12,13,13,14,14,15,15,16,16,22,22,23,23,24,24,25,25,26,26,28,28,31,31,32,32,33,33,34,34],"right_children":[2,4,6,8,10,12,14,16,18,-1,-1,-1,20,22,24,26,28,-1,-1,-1,-1,-1,30,32,34,36,38,-1,40,-1,-1,42,44,46,48,-1,-1,-1,-1,-1,-1,-1,-1,-1,-1,-1,-1,-1,-1],"split_conditions":[3.7986818E-1,7.351708E-1,3.5080886E-1,4.0353504E-1,7.240863E-1,3.9334932E-1,2.7831036E-1,3.5080886E-1,3.7896943E-1,1.6797737E-3,-7.711268E-3,6.8380507E-3,2.825045E-1,2.8460157E-1,8.067705E-1,3.2055122E-1,2.4985021E-1,4.2162093E-5,2.4946798E-3,-1.5292169E-3,5.2557886E-4,4.9591484E-3,3.1845418E-1,8.361294E-1,8.4062314E-1,3.2774118E-1,3.4451768E-1,-7.0634475E-3,2.297783E-1,1.1715979E-3,-6.578565E-5,8.2145E-1,7.6902336E-1,7.902936E-1,7.735171E-1,-1.7280705E-4,-1.9061388E-3,1.6467051E-3,-2.2799525E-4,-3.126522E-3,-3.7952335E-4,3.3521497E-5,-1.4320014E-3,-3.4749507E-6,2.1350277E-3,1.5129114E-3,4.8689482E-5,1.6363324E-3,-1.8807248E-3],"split_indices":[40,17,37,38,0,40,14,41,0,0,0,0,0,8,57,46,34,0,0,0,0,0,0,14,46,40,45,0,55,0,0,4,27,12,56,0,0,0,0,0,0,0,0,0,0,0,0,0,0],"split_type":[0,0,0,0,0,0,0,0,0,0,0,0,0,0,0,0,0,0,0,0,0,0,0,0,0,0,0,0,0,0,0,0,0,0,0,0,0,0,0,0,0,0,0,0,0,0,0,0,0],"sum_hessian":[1.44E3,4.65E2,9.75E2,4.62E2,3E0,5E0,9.7E2,4.57E2,5E0,1E0,2E0,3E0,2E0,5E0,9.65E2,3.94E2,6.3E1,1E0,4E0,1E0,1E0,2E0,3E0,8.85E2,8E1,3.25E2,6.9E1,2E0,6.1E1,2E0,1E0,8.54E2,3.1E1,6.7E1,1.3E1,3.04E2,2.1E1,3.2E1,3.7E1,6E0,5.5E1,8.27E2,2.7E1,1.7E1,1.4E1,4.5E1,2.2E1,2E0,1.1E1],"tree_param":{"num_deleted":"0","num_feature":"60","num_nodes":"49","size_leaf_vector":"1"}},{"base_weights":[-7.3744527E-6,-4.7759507E-3,5.290767E-5,2.783094E-3,-8.787397E-3,-2.8816806E-3,1.5075985E-4,1.6758968E-3,-2.1477231E-4,-1.4847142E-2,-3.9016325E-3,1.3363153E-3,